term_str,0,1,2,3,4,5,6,7,8,9,10,11,12,13,14,15,16,17,18,19,20,21,22,23,24,25,26,27,28,29,30,31,32,33,34,35,36,37,38,39,40,41,42,43,44,45,46,47,48,49,50,51,52,53,54,55,56,57,58,59,60,61,62,63,64,65,66,67,68,69,70,71,72,73,74,75,76,77,78,79,80,81,82,83,84,85,86,87,88,89,90,91,92,93,94,95,96,97,98,99,100,101,102,103,104,105,106,107,108,109,110,111,112,113,114,115,116,117,118,119,120,121,122,123,124,125,126,127,128,129,130,131,132,133,134,135,136,137,138,139,140,141,142,143,144,145,146,147,148,149,150,151,152,153,154,155,156,157,158,159,160,161,162,163,164,165,166,167,168,169,170,171,172,173,174,175,176,177,178,179,180,181,182,183,184,185,186,187,188,189,190,191,192,193,194,195,196,197,198,199,200,201,202,203,204,205,206,207,208,209,210,211,212,213,214,215,216,217,218,219,220,221,222,223,224,225,226,227,228,229,230,231,232,233,234,235,236,237,238,239,240,241,242,243,244,245,246,247,248,249,250,251,252,253,254,255
a,-0.08264745,-0.07542767,-0.056422144,0.15639089,0.08696596,-0.039673228,0.22674717,-0.044136256,0.030046357,0.13689663,0.1419378,0.008111503,0.038825165,-0.18263906,0.054326832,0.05028171,0.08174396,0.027974023,-0.18442793,0.24526194,0.14693472,-0.028933037,-0.05580711,-0.17408127,-0.23822097,-0.073803306,-0.17738353,0.15198286,-0.09173452,-0.21339254,0.20195946,-0.0019195931,-0.1916715,-0.09275163,-0.0043665324,0.263252,0.21625227,0.013661254,0.255483,-0.2109171,-0.2171907,0.4131926,-0.14323954,-0.14089234,0.18313189,0.019667258,0.03708576,0.20874424,0.07984897,0.26895264,0.09621557,0.06817211,0.09694364,0.0709023,-0.052170917,0.02279465,0.13814309,-0.15170936,0.004634873,0.353682,-0.058285262,0.085801736,-0.09241164,0.05403688,0.07562413,-0.04151355,0.044810873,0.09249099,-0.066322125,-0.15015699,0.2026469,0.034003586,-0.04030457,-0.061759017,-0.02162204,-0.032648787,0.17194708,-0.084904544,0.05394722,0.27410254,0.06513627,-0.067672744,0.039523788,0.17042552,-0.05440809,0.12003605,0.1878699,-0.163097,0.017888902,0.071243234,0.06750498,-0.06719872,-0.05326072,-0.13950871,0.001709458,-0.017868413,-0.19768085,-0.043901075,-0.094802074,-0.015762828,-0.14545162,0.020772671,0.061553326,0.15153512,0.053992838,0.061502356,0.080452584,-0.004166354,-0.0011650204,-0.08447383,0.109102815,-0.071182996,0.017882776,0.039397474,-0.037397686,-0.042834833,0.103074394,0.058481727,-0.046715453,0.12674573,-0.059974972,-0.09909861,0.121274896,-0.14681482,0.07413837,0.028736813,-0.009194804,-0.05115096,0.2044941,-0.08613045,0.055202752,-0.07819448,0.08686258,-0.08600699,-0.034479406,0.06373576,-0.017674064,0.0832319,0.16355069,0.005654004,-0.034268245,-0.02336411,0.07128433,0.026537398,-0.42196086,-0.05259862,-0.20504308,-0.063505396,0.12979779,0.15004207,0.005915439,-0.06066187,0.03729146,0.12970641,-0.22404166,0.08273902,0.16933914,0.1836587,-0.13695614,-0.013631065,0.29800576,0.088265665,-0.07003106,-0.25452822,0.13997671,0.059653502,0.11613984,0.0035579577,0.1080751,-0.10905665,-0.021243796,-0.035792507,0.18815354,0.0645559,-0.0690118,0.027401274,-0.106085114,0.13550355,0.037084796,-0.12917472,-0.06663092,0.022234512,0.06280906,0.03526006,0.36064327,-0.04535687,-0.31290838,-0.11242898,-0.2110887,-0.09960721,0.19499418,-0.055467177,0.18302137,-0.049329158,0.20007697,-0.103742495,-0.09666733,-0.21862699,-0.0036995737,0.13426068,-0.13810387,-0.014464175,0.0770784,-0.16637695,-0.024074968,0.1136285,-0.18413495,-0.048546173,-0.12462888,-0.06134239,-0.033038463,0.11890066,0.21329188,0.19047603,0.13521469,-0.048030324,0.122347265,0.21689549,-0.2819556,0.092939965,-0.12112999,0.0039999196,0.2439765,-0.17817801,0.08987118,-0.0539552,0.022041148,-0.015202013,-0.02930881,-0.05749692,-0.043571424,-0.14963919,0.008984319,-0.09133237,-0.31066063,0.33077687,-0.27110255,0.055371124,0.09306574,0.057489123,-0.045843024,0.13950384,0.030582793,0.103068076,-0.11434127,-0.08201157,0.16614826,0.013901829,-0.080470555,-0.23275085,-0.04611279,0.0048600053,-0.05725344,-0.05151161,-0.15672326,0.09934521
able,0.0031390311,-0.12607232,0.01287355,0.087216936,0.049718242,0.067140974,0.11255231,-0.0844408,-0.1140821,0.12631962,-0.062475365,-0.026785303,0.12215061,-0.20403276,0.13203438,0.14639491,0.11481206,0.09915368,-0.087958045,0.15546475,0.0986776,0.112770446,-0.11154995,-0.13453086,-0.14527525,0.041464888,0.00054454355,0.051693544,-0.021667618,-0.15984479,0.06996002,-0.024335269,-0.100347966,0.007258195,-0.03455467,0.18262418,0.15092134,0.019431014,0.044922594,-0.059708893,-0.032109454,0.07910121,0.053384613,-0.055726845,0.028016932,0.13818136,0.12803315,-0.02529145,0.12195533,0.04039774,0.03478055,0.007521866,0.09756857,0.04303386,-0.18253729,-0.009385556,0.09458581,-0.0915399,0.03949798,-0.048368704,-0.022481758,0.11418257,0.07538967,0.22044183,0.09218087,-0.13969532,-0.062001295,0.10667378,-0.14212258,-0.13141544,0.14694646,0.07363725,-0.22230849,-0.07989163,0.024256846,-0.12829536,0.05720461,-0.049481012,0.15610114,0.2920804,0.04186573,-0.1374927,0.08717479,0.23654486,-0.04182069,0.22209233,0.10030609,-0.13623247,0.014866532,-0.013195395,-0.101971805,-0.098011024,0.09795098,-0.14487308,0.119305015,0.2153796,-0.15289903,-0.08285019,0.009072534,-0.0062873494,-0.15979059,0.04393628,0.17356974,0.005146397,0.07647549,0.117732145,0.024220575,0.16587456,0.08066535,-0.036125526,0.11553388,-0.013683851,0.12388498,0.064119875,-0.069263496,-0.014736083,0.10838651,0.15539064,0.12307422,-0.069379464,-0.12531751,-0.024194201,0.10618861,-0.11825959,-0.0053040306,-0.045003857,0.16763744,0.02802601,0.100335345,-0.1410571,0.037358396,-0.055372294,-0.07867723,-0.15055043,0.06261236,0.028579466,0.08898584,0.028499836,0.17725495,-0.07523367,-0.013401873,0.017190367,0.1176379,0.01829519,-0.29129267,-0.25109854,-0.14735983,-0.10504648,0.13149117,0.1698947,-0.11200935,-0.037088666,-0.122749455,0.15464287,-0.2519589,0.08099176,-0.0041078036,0.013281763,-0.14869347,-0.097748354,0.21170314,0.02799752,0.057933882,0.017332798,0.0002345692,-0.0046166107,0.106396295,0.19831286,-0.023792656,-0.012462291,-0.07295601,-0.012455625,0.016969169,0.017782932,-0.11644739,0.023048911,0.0017699989,-0.070309974,0.05479166,-0.030321771,0.039356217,-0.051835924,0.044511486,0.08749826,0.20846227,0.15236412,-0.288263,-0.05861628,-0.1076047,0.009607063,0.1744105,-0.07121734,0.18842961,-0.17891286,-0.009081505,-0.23175375,0.028230496,-0.16266537,-0.07299502,0.00783643,-0.16200194,-0.11610285,0.1746583,-0.25331697,-0.0030346543,0.0867889,-0.07425973,0.04923958,-0.16015196,-0.023160206,-0.019480666,0.21427067,0.12438031,0.22445787,-0.10397126,-0.1149275,-0.0030785121,0.114746645,-0.10745606,0.058386423,-0.045938667,0.09840122,0.25245988,-0.026696747,-0.0632676,-0.058700874,-0.12484277,0.03413361,-0.013443703,-0.05795705,-0.15963896,-0.06728967,-0.05200538,-0.024634812,-0.23941766,0.21346286,-0.021336548,0.05108638,0.0978918,-0.012667705,0.060282495,0.004540646,-0.2702161,-0.0013971213,-0.020228878,-0.053112935,0.015788428,-0.06046558,-0.18505184,-0.30421826,-0.29765275,0.07038754,-0.28704602,-0.034011975,-0.1738743,0.051842008
about,-0.012286364,-0.16773695,-0.032080308,0.14905678,0.10416023,0.011273225,0.16678704,-0.09636817,-0.08922937,0.11863961,0.0404065,-0.03361617,0.13026568,-0.20481057,0.112834975,0.12187264,0.13756771,0.075673714,-0.11870006,0.18644452,0.120614655,0.05022949,-0.09232715,-0.15301317,-0.18643995,0.019244624,-0.023009267,0.09108144,-0.052435722,-0.18129075,0.13277379,-0.029522475,-0.14271191,0.019127063,-0.049189914,0.21108457,0.21527916,0.029911915,0.12749408,-0.1133246,-0.039598122,0.19442344,-0.007705818,-0.10843255,0.05833566,0.084258765,0.12149046,0.034752183,0.102291174,0.099600896,0.039314017,-0.0041256417,0.095190324,0.079703294,-0.14805955,-0.020711951,0.10720219,-0.14603168,0.036397144,0.083659545,-0.011901141,0.10743909,0.01449706,0.16792797,0.12870298,-0.094756596,-0.020142358,0.11830177,-0.08838235,-0.16326278,0.1870769,0.008229008,-0.19174774,-0.08229555,-0.00847279,-0.10570984,0.06291968,-0.0840335,0.105686605,0.30653763,0.029561175,-0.11041426,0.08895751,0.19389722,-0.055646982,0.21376954,0.12670232,-0.20425615,0.014521109,0.00881418,-0.02717444,-0.10564299,0.054950055,-0.11750556,0.1155792,0.11126158,-0.17803906,-0.07781393,-0.04492314,0.01944724,-0.20750457,0.045541573,0.122744046,0.036235094,0.09771586,0.09011097,0.06407977,0.0818421,0.082490884,-0.06292127,0.1307716,-0.039995432,0.09574634,0.09087854,-0.07039277,-0.004040881,0.09167893,0.108728714,0.08703609,-0.008573072,-0.13923293,-0.06397264,0.1105397,-0.10520658,0.032498766,-0.024875298,0.1444737,0.03132002,0.15337008,-0.14481175,0.07749455,-0.027597947,-0.030790072,-0.1702236,0.027364347,0.05216046,0.04148084,0.032338265,0.19463453,-0.10005813,-0.034206543,-0.07435689,0.17818418,0.013592759,-0.3633959,-0.20914117,-0.17150694,-0.064666696,0.13559125,0.1448524,-0.10809548,-0.03709543,-0.08104361,0.12462813,-0.20921865,0.03911918,0.037357345,0.06707955,-0.15837426,-0.01936438,0.21764319,0.0003149061,0.018536083,-0.029866405,0.018276142,0.03039963,0.05015961,0.17199802,0.057076503,-0.03505367,-0.045339093,0.035239633,0.02989912,0.050622568,-0.09399989,0.017469123,-0.047869425,-0.017179562,0.073795505,-0.023041295,0.0073258774,-0.005485609,0.015941905,0.054376256,0.22888401,0.08553912,-0.30386874,-0.05491471,-0.13084705,-0.028410567,0.23552269,-0.05994055,0.1552054,-0.10284931,0.09965064,-0.17451595,-0.023249837,-0.14195316,-0.06891803,0.0033180276,-0.15664057,-0.054475542,0.14036329,-0.19477144,-0.028148225,0.05057728,-0.066178605,0.01734576,-0.12038804,-0.078455225,-0.020430362,0.19082837,0.14244579,0.22063085,-0.037837103,-0.078252085,0.050242554,0.09819181,-0.14428705,0.08448745,-0.032612607,0.07370101,0.19015159,-0.07584521,-0.027205098,-0.042854853,-0.06798421,0.016585253,-0.04162063,-0.067748696,-0.12506908,-0.048172813,-0.004632906,-0.024412049,-0.20190081,0.16368267,-0.033323273,0.0056036958,0.079584785,-0.0070051644,0.028438536,0.046180207,-0.15724911,0.0010180414,-0.026288742,-0.08884565,0.08243272,0.0073687774,-0.12509741,-0.20268634,-0.21696799,0.043822974,-0.18881549,-0.048938066,-0.11822897,0.05590467
above,-0.031015161,-0.14517452,-0.030704072,0.13402596,0.101379,-0.009118132,0.1745806,-0.070152976,-0.06365913,0.1140303,0.0759718,-0.021672914,0.08957133,-0.18010636,0.08559535,0.095343724,0.12139429,0.057322323,-0.12505515,0.18475609,0.11936754,0.034792487,-0.05859694,-0.14247231,-0.17965962,2.825413e-05,-0.07289172,0.1051576,-0.05104883,-0.16801289,0.14406033,-0.03232914,-0.13491812,-0.00070375955,-0.038688697,0.21036679,0.22247632,0.024576288,0.15377891,-0.13201536,-0.069481,0.23214903,-0.04135352,-0.10611168,0.06508931,0.059968572,0.101170376,0.068526775,0.09296208,0.12979786,0.03834491,-0.0030279509,0.09565217,0.072564796,-0.111039035,0.0011354137,0.1074055,-0.16344836,0.023880444,0.15446585,-0.019909356,0.100960575,-0.014307466,0.13120578,0.12522484,-0.07705316,-0.0019748905,0.10069872,-0.082517676,-0.14199284,0.1956774,0.008656536,-0.14935637,-0.075291395,-0.020403,-0.083546974,0.080557875,-0.08928041,0.08537523,0.3008846,0.026359104,-0.08976541,0.063858435,0.17535172,-0.06038687,0.19448118,0.14040838,-0.1870627,0.01773977,0.033488274,-0.017814578,-0.09978415,0.03789825,-0.11468783,0.09106177,0.08218217,-0.17084871,-0.066708885,-0.058146767,0.016202878,-0.18296249,0.0570421,0.10793689,0.05897338,0.09307945,0.07720235,0.061030712,0.07113212,0.064148776,-0.07192182,0.1394249,-0.056885745,0.07601216,0.0727807,-0.06410895,-0.01767307,0.08993801,0.115009435,0.058363445,0.0052299732,-0.12003393,-0.07154154,0.09368137,-0.11012445,0.033827655,-0.008944507,0.11394299,0.012485788,0.17198819,-0.13454458,0.09094054,-0.031875644,-0.013061641,-0.15420456,0.017468872,0.04628281,0.024702607,0.047861774,0.17806526,-0.07378023,-0.033868037,-0.08974349,0.14346105,0.018498765,-0.34689495,-0.15974577,-0.17129692,-0.06253502,0.11785659,0.13326502,-0.06627583,-0.045292534,-0.036393188,0.12052344,-0.19702478,0.044201456,0.0708106,0.09970486,-0.13819063,-0.013097917,0.21399614,0.016968766,0.0050076344,-0.08918256,0.038721815,0.026796095,0.06172794,0.13133122,0.058853436,-0.08081618,-0.034807548,0.024151357,0.061599955,0.038749076,-0.07475037,0.0100799985,-0.05454907,0.017009053,0.06419155,-0.04292975,-0.011477797,0.0008111174,0.023900231,0.04021535,0.2376182,0.050555244,-0.2958312,-0.07054642,-0.13273047,-0.049265556,0.23550302,-0.057048436,0.118830554,-0.06970465,0.12515283,-0.12151471,-0.038720116,-0.13681115,-0.046311017,0.04001237,-0.119116835,-0.035465077,0.102397576,-0.16497298,-0.027445965,0.05084593,-0.07005426,-0.015903542,-0.10322102,-0.06316623,-0.013490217,0.16932996,0.14326866,0.19864696,0.009538998,-0.06427853,0.07698853,0.11661382,-0.15668352,0.09724003,-0.036298096,0.053342555,0.17738102,-0.10180319,0.0115759885,-0.037933636,-0.03187913,0.0013305048,-0.018410426,-0.051779974,-0.08776228,-0.060276873,-0.003235419,-0.030366411,-0.19418634,0.17314574,-0.059533693,0.013869051,0.063243,-3.9442002e-05,-0.012284063,0.062134672,-0.104292944,0.025994977,-0.027249314,-0.07598253,0.09393997,0.0066614817,-0.092384115,-0.16415152,-0.14659384,0.021770576,-0.12653455,-0.042235915,-0.104149505,0.06138519
account,-0.015549661,-0.09132556,-0.01612269,0.09054652,0.06273794,-0.001731923,0.11212246,-0.04426689,-0.043688137,0.07617014,0.038531173,-0.016846394,0.062302765,-0.117791295,0.059315875,0.0603127,0.07735551,0.03372842,-0.081632726,0.115917146,0.07769383,0.026901182,-0.043756038,-0.09596003,-0.11737554,-0.0017848307,-0.03946746,0.063974425,-0.032230023,-0.10730749,0.09245994,-0.01705745,-0.0801165,-0.0012203151,-0.026324013,0.13353984,0.13870704,0.012470462,0.08967293,-0.07908106,-0.045536026,0.14260982,-0.024729887,-0.06589675,0.048932835,0.039735727,0.063499115,0.039545923,0.06595753,0.085342005,0.030396216,0.006693253,0.0581125,0.044986162,-0.076294735,0.0014274893,0.067560904,-0.09533727,0.021933861,0.08974584,-0.020623215,0.06615235,-0.0056369714,0.0865416,0.07300865,-0.05205231,-0.003474218,0.066114485,-0.05588728,-0.09240583,0.12092338,0.009289684,-0.0988371,-0.0459409,-0.009257671,-0.050241426,0.053427223,-0.056493595,0.059723437,0.19126643,0.020361388,-0.0631156,0.04698774,0.12213597,-0.038966052,0.12786116,0.088556565,-0.11620685,0.01113731,0.024993012,-0.017773265,-0.056044508,0.030724399,-0.071732774,0.054877438,0.060943116,-0.1079076,-0.041356456,-0.029651277,0.006625058,-0.11470359,0.031555075,0.075063825,0.032918453,0.051958025,0.052988395,0.036442257,0.050306555,0.037294153,-0.042759817,0.083216935,-0.033283647,0.052744955,0.044569336,-0.043327928,-0.011672473,0.062806904,0.07880325,0.038864702,-0.00071460987,-0.07435327,-0.045701098,0.06443725,-0.075179555,0.025748326,-0.008284847,0.0704202,0.014035171,0.105183564,-0.09196026,0.053774893,-0.029139686,-0.009285616,-0.09591488,0.009121448,0.026620029,0.018162755,0.02838868,0.11805293,-0.04360672,-0.015183981,-0.03993322,0.08795706,0.012445116,-0.22071144,-0.10731121,-0.11139935,-0.044726375,0.082826145,0.08845842,-0.049546227,-0.030246599,-0.03289136,0.082710735,-0.14146848,0.037237942,0.042936668,0.059063476,-0.09374334,-0.019104613,0.13819037,0.015526551,0.006064831,-0.059157245,0.02518758,0.014842048,0.046458334,0.08889836,0.03213886,-0.048794214,-0.02377471,0.004069156,0.044681832,0.019063178,-0.053593703,0.010088993,-0.02752967,0.011687964,0.039650444,-0.037760425,-0.008036829,-0.0057727043,0.021670494,0.03248197,0.15210982,0.036765493,-0.19502683,-0.041148722,-0.09058895,-0.022926047,0.13648525,-0.035705887,0.08312983,-0.053719435,0.07211746,-0.08876075,-0.021596173,-0.09731018,-0.03146663,0.023120534,-0.08592466,-0.028914558,0.07514149,-0.11702614,-0.015453931,0.042607743,-0.0497435,-0.0077884723,-0.077197544,-0.036423456,-0.010134271,0.113292515,0.094347,0.13421267,-0.00073606026,-0.04488598,0.044274874,0.08321907,-0.10144898,0.052788977,-0.024827814,0.037236962,0.12378409,-0.05744353,0.0065818774,-0.029942073,-0.033086702,0.005174187,-0.012973693,-0.03774805,-0.06523005,-0.041317604,0.0011690697,-0.019632043,-0.14345668,0.12433921,-0.0483272,0.010036064,0.048192225,0.0021278453,-0.0034336783,0.03532293,-0.07915352,0.015955443,-0.023739066,-0.04854234,0.057660136,0.0012335138,-0.07027163,-0.12065832,-0.10921553,0.018258385,-0.09754701,-0.022713354,-0.07879698,0.03727269
across,-0.031395458,-0.1192652,-0.028600117,0.12128493,0.10598061,-0.02545885,0.1679685,-0.06381871,-0.051897667,0.11268635,0.08515813,-0.0149943335,0.06820666,-0.16348484,0.064263456,0.07704069,0.117995515,0.045255955,-0.114947855,0.17412469,0.107820824,0.02218249,-0.03732827,-0.13474944,-0.17791413,-0.0100325355,-0.084070034,0.098150544,-0.060228635,-0.15434785,0.13963373,-0.031977423,-0.12981959,0.0019577476,-0.036260493,0.19198091,0.20771244,0.013333681,0.1472097,-0.12253184,-0.06215711,0.23672266,-0.054945014,-0.09219822,0.0548414,0.051171415,0.082184024,0.081975095,0.07918886,0.12237167,0.038186766,-0.0044172467,0.08133064,0.06695843,-0.08304584,0.0076874304,0.08956652,-0.15105215,0.026067816,0.15935561,-0.016643614,0.09905979,-0.029056072,0.10118663,0.12442874,-0.07482686,0.0043488387,0.07870423,-0.057719264,-0.13471289,0.1855181,-0.0033501154,-0.11044889,-0.063632734,-0.028951382,-0.06710492,0.08674813,-0.08898784,0.058002565,0.27499494,0.02447705,-0.07427945,0.04819833,0.14565583,-0.062848054,0.18434744,0.13303702,-0.17267962,0.01656523,0.04032075,-0.011666501,-0.088146865,0.0337244,-0.09781552,0.08196854,0.056501824,-0.15706412,-0.05813757,-0.05458097,0.019244943,-0.1661808,0.051672958,0.083658375,0.05985944,0.07956139,0.06627205,0.061261617,0.05612863,0.05583435,-0.07520641,0.13036506,-0.050536323,0.065179735,0.06404538,-0.05881419,-0.011116821,0.08249325,0.10266509,0.050784625,0.0066354126,-0.11329252,-0.07089776,0.074233785,-0.105173506,0.03383314,-0.0028916243,0.09497583,0.013354838,0.15959956,-0.12994419,0.09645333,-0.031742558,-0.004204487,-0.137248,0.008589204,0.04134387,0.0220207,0.0440043,0.15907954,-0.061670452,-0.023173138,-0.100336336,0.12784314,0.01588637,-0.31629097,-0.12558974,-0.15634112,-0.0445833,0.100814424,0.102232605,-0.055495862,-0.042203307,-0.013785647,0.10039666,-0.17845586,0.045287,0.06570232,0.09820411,-0.11991796,-0.008009468,0.19908689,0.017753255,0.006646823,-0.10380095,0.050884552,0.03043375,0.04867356,0.11416672,0.051690016,-0.09824919,-0.024818368,0.018724438,0.067258455,0.022374758,-0.0527679,-0.002212217,-0.047085837,0.031953357,0.06842903,-0.053408433,-0.022561373,0.007337173,0.023363782,0.03714778,0.21857639,0.02234449,-0.26931456,-0.06582067,-0.1193211,-0.052242223,0.2198875,-0.056129206,0.08917672,-0.051461432,0.12448155,-0.09617547,-0.039779637,-0.1190786,-0.037106704,0.045745566,-0.09765252,-0.014783125,0.08483607,-0.14345363,-0.024435768,0.036665436,-0.044914607,-0.02275971,-0.093960814,-0.061652,-0.022151455,0.14910915,0.13516852,0.17699595,0.018790191,-0.052858777,0.079609856,0.10879058,-0.14489384,0.094418675,-0.02615219,0.03543635,0.15586664,-0.10117493,0.019853422,-0.034252446,-0.022494957,-0.00061067956,-0.014381544,-0.046334743,-0.06530724,-0.062167045,0.0029367204,-0.024102755,-0.18223353,0.15664642,-0.06214123,0.0056168237,0.055295095,-0.0048782974,-0.025863156,0.062492702,-0.0846053,0.023862705,-0.024791213,-0.072920114,0.08746451,0.015261109,-0.072745524,-0.12522815,-0.1204214,0.01361959,-0.097784534,-0.03348532,-0.09128691,0.06221125
actually,-0.017236788,-0.15266696,-0.019451236,0.13151164,0.08137252,0.02288449,0.16852161,-0.091896124,-0.08533917,0.12609534,0.0150941,-0.03081493,0.117706366,-0.20193204,0.118182294,0.12638552,0.12433509,0.07693627,-0.11145038,0.18513274,0.11973571,0.076141626,-0.09653618,-0.15108967,-0.17918679,0.023494484,-0.030834911,0.09576168,-0.038949132,-0.18372789,0.11622656,-0.025051167,-0.13246876,-0.0022636482,-0.032742597,0.1954844,0.19350025,0.025016006,0.10251187,-0.10804598,-0.057115763,0.17739905,0.0062726066,-0.083834425,0.06660645,0.09011107,0.1048549,0.0332942,0.11596024,0.10033485,0.04433007,0.018245373,0.09319322,0.06045465,-0.15170464,0.0013068361,0.10001229,-0.13423239,0.032246534,0.07450078,-0.03848516,0.11549042,0.032743175,0.1763633,0.11166258,-0.10443591,-0.03306241,0.104794584,-0.10750702,-0.15235102,0.17608576,0.032150254,-0.1941598,-0.07375335,-0.002984937,-0.0944787,0.07286293,-0.080938525,0.12307058,0.30217052,0.037839975,-0.11353356,0.089481436,0.21012369,-0.061695777,0.21018095,0.13774168,-0.17836383,0.020640256,0.004849809,-0.049447365,-0.091374755,0.06537906,-0.12908328,0.10747448,0.14136624,-0.178405,-0.06761235,-0.036499232,0.008058592,-0.18884188,0.04091317,0.14258017,0.047299773,0.08252436,0.10405901,0.054046214,0.10726553,0.06575812,-0.044060327,0.1376799,-0.040444866,0.10729542,0.08046513,-0.07359436,-0.013863661,0.117680654,0.12350603,0.08621414,-0.0239043,-0.13130297,-0.05790771,0.11973036,-0.12606224,0.024199907,-0.029005155,0.146895,0.024270365,0.15462738,-0.1467169,0.057461172,-0.04214708,-0.052610163,-0.15862435,0.03956329,0.039754577,0.051267553,0.04707409,0.19166845,-0.07592043,-0.021436902,-0.027378865,0.14433055,0.018717563,-0.35655257,-0.21413672,-0.16916978,-0.10220891,0.14650895,0.14866363,-0.09869376,-0.042601846,-0.09638258,0.13785973,-0.2360119,0.064883634,0.041491184,0.06371896,-0.14844476,-0.050759967,0.22857375,0.021089403,0.033988625,-0.04491279,0.027158454,0.028617939,0.074807495,0.16181432,0.034133498,-0.038911264,-0.05358086,0.0063136425,0.053220563,0.038424514,-0.10030884,0.02905326,-0.02986532,-0.009797387,0.058148444,-0.037228297,0.014603734,-0.0150142675,0.03827588,0.06929356,0.23928462,0.09925399,-0.3041015,-0.061818548,-0.14019935,-0.019641561,0.20866342,-0.065831475,0.16810246,-0.13033684,0.06571077,-0.18454696,-0.008887221,-0.15600464,-0.054515403,0.020073418,-0.15290539,-0.07973406,0.1411357,-0.21014307,-0.015581028,0.07216673,-0.0873499,0.020836288,-0.13391319,-0.049633432,-0.017925011,0.20448141,0.14789575,0.230292,-0.047359917,-0.09522526,0.03804433,0.11600092,-0.14707348,0.074823834,-0.046961952,0.08195197,0.22453843,-0.061377008,-0.0149811525,-0.051060338,-0.085336536,0.014897191,-0.025247876,-0.061699513,-0.13937785,-0.064456515,-0.013009354,-0.025983239,-0.22572757,0.20569986,-0.052268103,0.02908578,0.07621551,0.0026860107,0.03037336,0.041612625,-0.18189213,0.012267163,-0.045655888,-0.07872506,0.06681669,-0.0086428225,-0.14217108,-0.24366698,-0.22273056,0.03579215,-0.20392236,-0.039645087,-0.14363277,0.05591963
added,-0.010908928,-0.07988651,-0.013074102,0.07495887,0.052757207,0.0026186593,0.100254096,-0.043423116,-0.045335814,0.06895261,0.024431892,-0.015185127,0.057289243,-0.114443265,0.05260351,0.060875125,0.066516496,0.033340115,-0.06660646,0.099642426,0.06803166,0.02511624,-0.043394092,-0.08143354,-0.105085865,0.002141626,-0.032790925,0.051554997,-0.025485482,-0.09714576,0.07500451,-0.015250733,-0.078157626,-0.002381848,-0.025826585,0.11443242,0.11657934,0.013901202,0.07426994,-0.06519867,-0.038949545,0.11839777,-0.011150054,-0.054003082,0.0371104,0.041488286,0.056564935,0.031218633,0.059716996,0.063868746,0.022828227,0.0013255759,0.05878906,0.039042726,-0.07566274,0.004725007,0.06159519,-0.08715146,0.014222214,0.061646592,-0.016209245,0.064524345,0.0003421715,0.083002426,0.07002514,-0.05240704,-0.008793486,0.057146143,-0.056123126,-0.086353205,0.109979525,0.008173487,-0.096601486,-0.039856233,-0.0049906946,-0.05152513,0.04316341,-0.050058663,0.058388427,0.17319132,0.022312943,-0.060421087,0.043281246,0.1070345,-0.0337977,0.1137254,0.08072039,-0.10633042,0.0042189565,0.01535781,-0.017530937,-0.056030285,0.03259143,-0.06444644,0.059041023,0.061181214,-0.09861391,-0.03493738,-0.021107242,0.004671633,-0.105169624,0.027879143,0.07311356,0.02747839,0.05209745,0.052248772,0.03370785,0.05248236,0.03401402,-0.035360284,0.081011735,-0.02764684,0.055336643,0.04524079,-0.038534295,-0.005724638,0.05734422,0.06853729,0.037409022,-0.0059057637,-0.07524833,-0.03961472,0.059137534,-0.07147767,0.012464283,-0.008032834,0.07187309,0.016898839,0.09032218,-0.08281389,0.04606121,-0.025133789,-0.014439007,-0.08715258,0.015073773,0.02999425,0.022915073,0.027010966,0.11083422,-0.039186068,-0.016696945,-0.030881764,0.08276791,0.010946093,-0.1999373,-0.103725135,-0.09295,-0.040393803,0.07384575,0.07904187,-0.045328006,-0.023924144,-0.033834662,0.07336713,-0.12912978,0.037134547,0.028151216,0.04430144,-0.086292826,-0.016063401,0.12504661,0.014589829,0.0110833105,-0.04302569,0.01827453,0.016162151,0.038029175,0.08828429,0.022526937,-0.03755471,-0.024837727,0.0041879807,0.028146662,0.021209812,-0.047977615,0.005530063,-0.026323175,2.6974967e-05,0.040082034,-0.023123492,-0.002475801,-0.0045975368,0.0137787545,0.029741548,0.13407117,0.04046454,-0.16874442,-0.034356378,-0.072769284,-0.021202784,0.13012291,-0.033840522,0.08282635,-0.057265867,0.054509275,-0.08483799,-0.00993717,-0.08892487,-0.031687442,0.016244112,-0.07942492,-0.0330727,0.06591671,-0.108347274,-0.008439998,0.03662224,-0.04346461,-0.0033128294,-0.069758534,-0.02837375,-0.011323473,0.104068995,0.08339184,0.12300166,-0.014052073,-0.041448917,0.03530617,0.07152217,-0.08636869,0.04480057,-0.026488638,0.035641335,0.113071546,-0.045375112,-0.0026632599,-0.026982367,-0.032413993,0.0031176724,-0.010826269,-0.035541408,-0.060739376,-0.03808357,-0.002132466,-0.019622006,-0.12495666,0.110583514,-0.03790214,0.010375647,0.039924912,-0.0004993096,-0.0019535753,0.026498597,-0.08789803,0.009001487,-0.01669487,-0.049056288,0.047845807,-0.00702058,-0.07254551,-0.11597421,-0.10783472,0.013303164,-0.1015771,-0.024527693,-0.0768236,0.036176324
advantage,-0.0140591785,-0.09493863,-0.013198537,0.08713374,0.057457346,0.006535225,0.11135392,-0.05108098,-0.042995103,0.07351376,0.02466581,-0.018634772,0.06578139,-0.12129485,0.059170447,0.071511894,0.07652162,0.042422462,-0.08130467,0.11273988,0.076491654,0.027381474,-0.05125586,-0.09188484,-0.11220312,0.0032261726,-0.03144222,0.06447684,-0.02989241,-0.10809466,0.08123965,-0.013151208,-0.08026928,-0.0005579451,-0.025870902,0.13267337,0.12738715,0.013091263,0.07882275,-0.07868755,-0.04365206,0.12925978,-0.014936755,-0.057927463,0.04330976,0.04991962,0.061199903,0.03111887,0.059863348,0.07790056,0.029038183,-0.00031214263,0.057606757,0.04182828,-0.080792785,0.00037985964,0.065784045,-0.09525004,0.020228736,0.075544395,-0.020388888,0.06452171,-0.0013856621,0.0970114,0.07500905,-0.051958214,-0.008876139,0.063538276,-0.061901096,-0.090364136,0.11899985,0.010965781,-0.10267092,-0.050294437,-0.0034383968,-0.055098973,0.050573662,-0.057889584,0.062049367,0.18951304,0.021548582,-0.06491084,0.051505376,0.121592894,-0.035620216,0.12722705,0.08865555,-0.11965413,0.008875388,0.016052218,-0.018638466,-0.062167324,0.03018707,-0.07905884,0.06262311,0.0662965,-0.10436877,-0.044876523,-0.028831828,0.007403094,-0.11393214,0.02974423,0.07240999,0.032958385,0.05549366,0.056533262,0.03522301,0.05563302,0.040392462,-0.035534486,0.08393871,-0.029200528,0.05296119,0.05006068,-0.046058424,-0.011220781,0.06256343,0.07499721,0.043154202,-0.004278116,-0.07884076,-0.039055083,0.0678143,-0.072929926,0.019797338,-0.01147815,0.080541864,0.010597773,0.10007801,-0.08591588,0.04498497,-0.022525383,-0.016566454,-0.0934706,0.012958266,0.03415749,0.021448903,0.02898539,0.119465895,-0.043450814,-0.018597296,-0.036607336,0.089541174,0.010489986,-0.22209674,-0.1164398,-0.10353044,-0.045951344,0.07792712,0.093884744,-0.049903236,-0.028692696,-0.04401143,0.07940075,-0.13583282,0.036380954,0.03680955,0.05355043,-0.09534155,-0.020178849,0.14005974,0.010829141,0.01380409,-0.042137332,0.025806202,0.012388814,0.040328495,0.08959908,0.03154855,-0.03778106,-0.02728203,0.006670075,0.03874144,0.02674298,-0.05485191,0.008810835,-0.030340137,0.00609762,0.037996612,-0.0302328,0.00094937516,-0.002367174,0.022635503,0.033936568,0.14872546,0.043015152,-0.19094288,-0.037998047,-0.08504058,-0.022205783,0.14351217,-0.036127523,0.091774985,-0.06621733,0.06228023,-0.0951778,-0.01114974,-0.0961902,-0.033915296,0.017521942,-0.08999996,-0.03793456,0.07858469,-0.1186244,-0.015147831,0.038553838,-0.04675583,0.004388454,-0.076232605,-0.040121567,-0.0074000466,0.112667866,0.092641495,0.12802795,-0.011149948,-0.0453212,0.03507583,0.07097281,-0.09797199,0.051590387,-0.027253242,0.039427448,0.12307329,-0.055274703,0.0032386861,-0.03249776,-0.037598837,0.008955513,-0.016861806,-0.035048436,-0.064705566,-0.042958066,-0.0022904663,-0.022142151,-0.13802566,0.12268434,-0.04128388,0.014921585,0.046979126,0.006957231,0.002982284,0.02895628,-0.08652882,0.015216374,-0.02160016,-0.04781561,0.056287155,0.0022148176,-0.07454241,-0.1265344,-0.11560676,0.02154553,-0.10978953,-0.024713501,-0.0829394,0.040058978
advice,-0.018365625,-0.11596399,-0.02485425,0.11156322,0.07567496,0.0022460797,0.1438376,-0.067011036,-0.05524626,0.097430415,0.043195043,-0.024629615,0.08368991,-0.16132653,0.08169144,0.089865334,0.10464419,0.05302099,-0.10497146,0.15167354,0.100668594,0.038272988,-0.059377227,-0.12698056,-0.15584116,-0.0010567146,-0.04712199,0.08329691,-0.046225388,-0.1425473,0.11444858,-0.019353382,-0.111641645,-0.0055209897,-0.02957116,0.17238139,0.17444174,0.018685305,0.11171637,-0.09838412,-0.058520574,0.17943875,-0.024041781,-0.07690649,0.06020833,0.05575966,0.0759179,0.04796692,0.08047236,0.10161936,0.03729466,0.007618294,0.07322606,0.060340714,-0.101285584,-0.00012898422,0.0859278,-0.122922584,0.025893318,0.10144856,-0.019417325,0.08937321,0.0011599628,0.12151428,0.099755175,-0.07300104,-0.008736568,0.080207765,-0.07167835,-0.12357533,0.15484272,0.017814951,-0.13049117,-0.06433704,-0.014000329,-0.07149145,0.07094285,-0.07005637,0.081307,0.24651295,0.026628288,-0.08016467,0.062119693,0.1567296,-0.04464854,0.16071428,0.11645077,-0.15407892,0.014182604,0.02408365,-0.018728552,-0.07644496,0.037882376,-0.10210851,0.08160231,0.08213473,-0.1433837,-0.05464152,-0.044988386,0.007814673,-0.15295038,0.042945024,0.1003147,0.04363738,0.063291594,0.0756432,0.05389552,0.07115903,0.04983065,-0.0476118,0.11352962,-0.038528465,0.067772575,0.06160854,-0.05336938,-0.008754382,0.08175883,0.101739205,0.05098506,-0.0017444621,-0.10454027,-0.055131752,0.089357145,-0.097941175,0.0270149,-0.010833832,0.09558426,0.013555005,0.13365148,-0.11848018,0.06426855,-0.029950306,-0.020635132,-0.1287269,0.017531587,0.0383675,0.02775734,0.042371266,0.14902413,-0.05704841,-0.023976957,-0.044121787,0.12030034,0.013446472,-0.29336965,-0.151835,-0.14443284,-0.064479195,0.106197916,0.12026651,-0.06693296,-0.039157998,-0.05342754,0.10412703,-0.18733346,0.048434045,0.04891076,0.06964277,-0.11853331,-0.028999386,0.1880549,0.019635849,0.012090743,-0.065537825,0.03556362,0.024156779,0.060589675,0.122198604,0.041368794,-0.05514388,-0.03349151,0.011180264,0.050797593,0.034260947,-0.07588954,0.017050372,-0.034775864,0.011538833,0.054038916,-0.04287259,-0.0039657196,-0.0019216288,0.028822612,0.03785764,0.19902292,0.05484005,-0.25488946,-0.0521976,-0.1140434,-0.026945502,0.18682545,-0.051474057,0.120508395,-0.079308584,0.09142464,-0.12841402,-0.022838477,-0.12663113,-0.041451804,0.027875263,-0.11634959,-0.042825047,0.1048156,-0.15836528,-0.01492529,0.046937484,-0.066943705,-0.0029006158,-0.1031357,-0.04587656,-0.009912121,0.15002704,0.12798777,0.17384993,-0.0044040536,-0.06208091,0.050089553,0.09831518,-0.1278846,0.072921544,-0.040526286,0.05760099,0.16434178,-0.07019483,0.0004115173,-0.04617831,-0.043488216,0.007907401,-0.019025916,-0.045760535,-0.082949504,-0.05929796,-0.0029067716,-0.02398029,-0.18174371,0.15841039,-0.052406296,0.019605162,0.060646802,0.004830218,0.0015513109,0.04402562,-0.11595581,0.021922473,-0.033229213,-0.06268133,0.07037786,-0.00037366277,-0.099527605,-0.16452606,-0.14662327,0.026599025,-0.13113134,-0.03494845,-0.10497656,0.051883157
afraid,-0.014251845,-0.11350876,-0.01324547,0.103722826,0.062179107,0.01760981,0.13171455,-0.061071374,-0.05363599,0.09457047,0.018618243,-0.020852135,0.080862865,-0.14492373,0.08113095,0.094597176,0.09381824,0.04900348,-0.09411763,0.13586687,0.091278866,0.046353277,-0.069138125,-0.11627639,-0.13064946,0.011515519,-0.026580423,0.06962313,-0.029228808,-0.13533291,0.088216566,-0.01989297,-0.09879749,0.003233311,-0.029302461,0.15079172,0.15227541,0.019755755,0.087227345,-0.08201283,-0.046725187,0.14744498,-0.007172691,-0.06558753,0.05186475,0.06179467,0.08211671,0.032158583,0.084025316,0.08741913,0.02756583,0.007668685,0.07111083,0.049641497,-0.10730112,-0.0044485996,0.07513444,-0.100721754,0.01953869,0.06605594,-0.020566657,0.07884875,0.010972754,0.12851532,0.08273474,-0.07117168,-0.01979915,0.07851466,-0.07696055,-0.10724418,0.13294226,0.022286523,-0.13953549,-0.057416264,0.00018656664,-0.06796414,0.06039046,-0.06933629,0.08239231,0.2233697,0.03240495,-0.08067327,0.068960115,0.15860695,-0.044664476,0.152802,0.10326575,-0.1385203,0.009419062,0.008997508,-0.028830571,-0.074095495,0.038907874,-0.100964636,0.0811086,0.09580491,-0.13451786,-0.048284017,-0.027657565,0.0077001397,-0.14097951,0.035385106,0.100832984,0.036664248,0.061840195,0.07459698,0.04437718,0.07594755,0.055658292,-0.04027908,0.102836914,-0.034106527,0.07281029,0.060860697,-0.049844205,-0.012606633,0.08530089,0.095470235,0.059930578,-0.010016534,-0.09594956,-0.042217646,0.0823204,-0.09053099,0.016434947,-0.021842329,0.10143375,0.013193348,0.11947391,-0.11180217,0.049236875,-0.03091542,-0.0311304,-0.11638078,0.022352152,0.03280691,0.03350766,0.035436116,0.14374486,-0.055670563,-0.018384479,-0.02677721,0.11103636,0.016712101,-0.27137986,-0.15411429,-0.13337433,-0.06697177,0.10271122,0.11349475,-0.06899184,-0.035194706,-0.06584336,0.10166955,-0.17652348,0.049464695,0.03253144,0.0503719,-0.11574699,-0.034395006,0.17709814,0.019746996,0.019608893,-0.044964712,0.026946316,0.015892234,0.05774695,0.120455,0.027275568,-0.038316235,-0.039064273,0.004823032,0.044593465,0.032793656,-0.07793646,0.018231342,-0.029793132,-0.0008993472,0.04540653,-0.0340246,0.008188165,-0.0047153053,0.02409056,0.0406224,0.18278675,0.0704629,-0.23655157,-0.048576154,-0.1068204,-0.023663288,0.16525632,-0.044978566,0.12174294,-0.08971835,0.060507637,-0.1352829,-0.010581222,-0.11897266,-0.03855358,0.017133899,-0.1187379,-0.059033673,0.10670632,-0.158469,-0.012506216,0.054332085,-0.062298488,0.010762278,-0.099774435,-0.04151003,-0.008326917,0.14687388,0.1175695,0.16980782,-0.025992459,-0.05993443,0.035798915,0.091704376,-0.1136174,0.06297146,-0.03656301,0.06305224,0.15883105,-0.051805373,-0.008262803,-0.038945116,-0.055658728,0.010914297,-0.019483684,-0.0457783,-0.091793776,-0.053933185,-0.006134858,-0.02536744,-0.17341793,0.15217158,-0.043981917,0.02499838,0.05794491,0.007849137,0.01828465,0.035839036,-0.132565,0.011185591,-0.028846625,-0.05904376,0.0595417,-0.009302604,-0.10295867,-0.17280234,-0.15622592,0.033788808,-0.14087196,-0.0336171,-0.10839687,0.040606324
after,-0.033713397,-0.16912553,-0.048615012,0.14951563,0.13029407,-0.033301495,0.20387211,-0.08176567,-0.05316397,0.12860228,0.1104385,-0.019989515,0.09501914,-0.19310741,0.08175296,0.10786715,0.13873309,0.043868896,-0.14374131,0.21099994,0.13730772,0.028926853,-0.066464946,-0.17303957,-0.21123083,-0.015762655,-0.0833128,0.124576464,-0.06091504,-0.20453364,0.1712729,-0.035297316,-0.16528767,0.013693438,-0.057459574,0.23914868,0.26674613,0.027080758,0.18885776,-0.15161638,-0.07321989,0.2883184,-0.06066007,-0.13819285,0.070769876,0.06590989,0.118324235,0.090578295,0.09708259,0.16744797,0.041907765,-0.0047416566,0.09498251,0.092497066,-0.11270878,-0.0022716701,0.13085198,-0.19907534,0.033541903,0.19633016,-0.008020408,0.10905394,-0.025443133,0.12872973,0.15330058,-0.07843842,0.0036927587,0.10717155,-0.08140919,-0.16932504,0.22525744,-0.014804137,-0.16200818,-0.07024673,-0.03317282,-0.080850326,0.09024481,-0.10425892,0.07401373,0.3292459,0.028959382,-0.1002913,0.07597831,0.1761803,-0.07659993,0.23121971,0.16499507,-0.22305593,0.0065686153,0.041068885,0.0011938686,-0.12809423,0.037098005,-0.10523901,0.10874083,0.05683985,-0.19405946,-0.069255635,-0.078254186,0.036296055,-0.22348511,0.068476975,0.10071703,0.07366514,0.11903437,0.078293845,0.07521338,0.058558095,0.07942016,-0.093465865,0.16496678,-0.071293674,0.079650626,0.08936947,-0.0596556,-0.014703849,0.10425565,0.12497893,0.05277751,0.019892968,-0.13084415,-0.077705726,0.0994167,-0.11909883,0.05362095,-0.010422053,0.12718412,0.012689292,0.20909339,-0.1581118,0.11609624,-0.04592545,-0.011070906,-0.17293063,0.012473757,0.059739348,0.015749741,0.05258022,0.20584168,-0.084369734,-0.04762513,-0.1250158,0.17927204,0.017927198,-0.41304708,-0.15898119,-0.20166734,-0.053727675,0.13385342,0.14275828,-0.07728262,-0.043737974,-0.01764745,0.12676005,-0.21659385,0.04667813,0.08870252,0.13554345,-0.1487203,0.019360984,0.24370532,0.0064820396,-0.013220818,-0.10921252,0.059124824,0.04221325,0.060813423,0.14433001,0.09279457,-0.10373263,-0.039761376,0.026969166,0.06826674,0.04626904,-0.078564495,0.0058398405,-0.068466105,0.027841315,0.07767373,-0.042560797,-0.020471882,0.0076273666,0.031771418,0.048753742,0.27443317,0.03820342,-0.3189893,-0.08117142,-0.154902,-0.07317389,0.27807122,-0.063952066,0.116927095,-0.063369535,0.15280439,-0.113939084,-0.05542826,-0.15095426,-0.051159587,0.03815865,-0.13066322,-0.02286477,0.09079707,-0.1635622,-0.035481825,0.049751826,-0.054736566,-0.027869252,-0.09640533,-0.081193104,-0.034954812,0.17915848,0.16288461,0.21446104,0.021412035,-0.062853016,0.09369702,0.12587878,-0.18391779,0.11046198,-0.03176592,0.038010456,0.1870746,-0.113466725,0.01715365,-0.031454407,-0.004519832,-0.017668553,-0.034531746,-0.05889422,-0.08242723,-0.06259257,0.010285321,-0.02379757,-0.21176113,0.18568844,-0.076580375,-0.003194985,0.06705385,0.0010648748,-0.018431213,0.082285784,-0.08343275,0.01992272,-0.03552017,-0.086808205,0.1213141,0.01991966,-0.092365175,-0.1525694,-0.13825074,0.01342757,-0.11926896,-0.044961054,-0.1009372,0.06423307
again,-0.028250579,-0.14686784,-0.027589412,0.15032959,0.12222941,-0.013349876,0.20553069,-0.08597346,-0.077081345,0.1428939,0.09660092,-0.018956874,0.099641785,-0.20381838,0.10284411,0.08699322,0.13952002,0.06473287,-0.1292271,0.20887408,0.108206496,0.039704364,-0.05253371,-0.16616887,-0.21301913,-0.0032952782,-0.098617464,0.11540945,-0.07590516,-0.18530568,0.17675644,-0.031004168,-0.14299515,-0.0059968596,-0.04059156,0.23185372,0.25210163,0.021175515,0.17042269,-0.16062845,-0.06993395,0.26671758,-0.06350952,-0.10026352,0.073831506,0.062056154,0.09850984,0.094916806,0.111160666,0.15452774,0.051651996,-0.0007021412,0.11804548,0.07725954,-0.11715279,0.029436436,0.106515914,-0.17658907,0.03783217,0.17668295,-0.03863629,0.12165971,-0.03031778,0.1589962,0.13360174,-0.09602607,-0.009940062,0.114006415,-0.073466904,-0.16003981,0.23213044,0.0020875414,-0.13924333,-0.08270987,-0.029241247,-0.07388822,0.093029216,-0.10684959,0.09460248,0.34042192,0.03135659,-0.0935532,0.06322246,0.21024808,-0.079221666,0.22317606,0.15951043,-0.22794145,0.030110464,0.056491878,-0.03220227,-0.1041511,0.04691073,-0.11120957,0.10048859,0.09874518,-0.20150709,-0.057273764,-0.051990416,0.009123004,-0.21177894,0.07699377,0.13238238,0.06054158,0.09859343,0.09063127,0.08936166,0.09956235,0.06909363,-0.08314506,0.1566215,-0.06467682,0.08908446,0.08850308,-0.07113648,-0.020835873,0.10852585,0.15334335,0.07409998,-0.005702099,-0.15040265,-0.078621276,0.10516287,-0.14149986,0.040359225,-0.009889609,0.1179846,0.013675599,0.18849614,-0.16315697,0.11165993,-0.046958953,-0.02421343,-0.1754837,0.01426695,0.04513369,0.03592906,0.06312924,0.20777166,-0.076398306,-0.026719877,-0.105851136,0.15303063,0.01722851,-0.40318114,-0.1921535,-0.19706412,-0.07549722,0.13158147,0.13991782,-0.06436517,-0.05486012,-0.04545395,0.14814301,-0.23829006,0.07478955,0.06652912,0.10854611,-0.16112937,-0.027757373,0.23629296,0.015482835,0.021700235,-0.12624215,0.05171818,0.03904173,0.081127584,0.1394375,0.048734386,-0.11265551,-0.04431786,0.021986542,0.06864544,0.01484449,-0.08676545,0.00578258,-0.052182507,0.035450444,0.07650265,-0.07088382,-0.034035236,0.009782714,0.029946575,0.05489101,0.27034628,0.030605968,-0.3497544,-0.070451595,-0.1397754,-0.054900274,0.26957005,-0.06919297,0.114832856,-0.07741467,0.13182524,-0.13046114,-0.04593572,-0.14706741,-0.057034474,0.05054959,-0.13960528,-0.037970062,0.119371735,-0.18559021,-0.028516786,0.058378223,-0.05273643,-0.017057862,-0.12827274,-0.0536611,-0.018418292,0.17035876,0.1744263,0.21689378,0.009849943,-0.07802831,0.07529271,0.15505622,-0.18284754,0.111446105,-0.035920534,0.06559987,0.20615724,-0.12457911,0.024062864,-0.057407863,-0.034953635,0.01582285,-0.0101429885,-0.06131543,-0.08761919,-0.078996636,-0.0038113042,-0.027631957,-0.24467,0.206219,-0.07313679,0.012249619,0.075858094,-0.0072093606,-0.02373955,0.06802846,-0.13596657,0.037813123,-0.038215537,-0.101711355,0.11375566,0.0059598987,-0.10990257,-0.1922083,-0.18304127,0.0074897422,-0.16204256,-0.036948062,-0.13823214,0.07916439
against,-0.03812505,-0.1720754,-0.04275765,0.16622613,0.15154122,-0.0353925,0.20811667,-0.078562036,-0.07144796,0.12806515,0.13912353,-0.014340426,0.09520659,-0.20426501,0.08131947,0.09866375,0.15885904,0.045445394,-0.14564344,0.21376088,0.1540463,0.008068214,-0.048555236,-0.17885639,-0.23297377,-0.016146751,-0.109366395,0.12732598,-0.07492756,-0.18926808,0.19006732,-0.033157915,-0.16274233,0.018822894,-0.058487,0.25302792,0.28743958,0.028813807,0.20745473,-0.16258322,-0.066087104,0.3179929,-0.065108545,-0.13300663,0.06383635,0.062325925,0.10844526,0.10457968,0.08719674,0.15765776,0.043470766,-0.024939807,0.110066324,0.101033956,-0.09678925,0.0031414842,0.11441035,-0.2116418,0.033123124,0.21279514,-0.0128759295,0.11721884,-0.05336066,0.13162209,0.1629763,-0.080744594,0.009310886,0.11318913,-0.070188366,-0.17458834,0.2397373,-0.017593073,-0.13414073,-0.085825205,-0.03943635,-0.091226354,0.095215164,-0.11202165,0.06776569,0.35400978,0.021280931,-0.0835363,0.062527165,0.17627777,-0.07679368,0.22947259,0.17071503,-0.22208668,0.023211092,0.057954956,-0.01309163,-0.11583459,0.04388292,-0.11604057,0.09903285,0.053377397,-0.19196771,-0.07599704,-0.06899814,0.03203637,-0.21976547,0.078745596,0.09249805,0.07248285,0.10719627,0.07566134,0.07588558,0.054462817,0.08710201,-0.1063611,0.1653927,-0.066522956,0.07987821,0.0845506,-0.080052026,-0.007545694,0.0964302,0.13338214,0.061694827,0.005302163,-0.15152484,-0.103252746,0.09182251,-0.11229706,0.050232477,-0.00042037322,0.13052815,0.009238543,0.20919363,-0.16480564,0.14010333,-0.034583084,0.0008855084,-0.18655068,0.00082276465,0.058452316,0.021245727,0.04389521,0.19221075,-0.09049205,-0.039284803,-0.1556811,0.1758,0.02267895,-0.403302,-0.14369132,-0.20438997,-0.049381416,0.12953976,0.12723337,-0.07287625,-0.05181815,-0.01351991,0.12242802,-0.20992225,0.04782852,0.08309828,0.13501206,-0.15307003,0.0038523641,0.23566914,0.015235107,0.004901462,-0.12235873,0.056083243,0.030263713,0.049420495,0.13978304,0.0628027,-0.12808278,-0.01989737,0.040705875,0.06513281,0.025192855,-0.060292996,-0.01830028,-0.06227877,0.041516084,0.1001747,-0.059385803,-0.028370896,0.026137644,0.017171307,0.041786548,0.26775405,0.014211451,-0.35133365,-0.0815559,-0.14443675,-0.07044979,0.28845906,-0.06536049,0.10530941,-0.04927397,0.17535704,-0.100904174,-0.056526452,-0.14965756,-0.03952695,0.048093997,-0.12596653,-0.005135408,0.097655445,-0.16322225,-0.033232756,0.04047537,-0.04117251,-0.0495067,-0.10341176,-0.09093879,-0.019655006,0.18545483,0.16178396,0.21731642,0.030311236,-0.055088706,0.1128526,0.13775447,-0.17588307,0.12680244,-0.032219563,0.044641163,0.1815352,-0.13830194,0.017374923,-0.033938654,-0.010402978,-0.009706289,-0.026401332,-0.06543109,-0.071798675,-0.05497476,0.015102335,-0.02946096,-0.19771141,0.17651162,-0.06524956,-0.0076013883,0.06781393,-0.013518836,-0.03661789,0.09011338,-0.08836132,0.016359946,-0.027855042,-0.09864834,0.11651415,0.028311772,-0.07388037,-0.13703033,-0.1322416,0.016964743,-0.11633544,-0.047368888,-0.09073453,0.07407626
ago,-0.017789707,-0.12143375,-0.022192935,0.115446605,0.078167334,0.0015204268,0.14841695,-0.073568866,-0.057931054,0.10587842,0.045143843,-0.020044778,0.07894891,-0.16554298,0.082106136,0.09510864,0.1074703,0.047715962,-0.103891954,0.15830286,0.105492264,0.044647776,-0.06433729,-0.12923345,-0.15869828,0.00800543,-0.051933944,0.08327572,-0.042798396,-0.15296651,0.10982327,-0.022842167,-0.114760816,0.0019522269,-0.029376136,0.17676117,0.17621748,0.017985955,0.11431415,-0.10244014,-0.060022738,0.18725953,-0.015048103,-0.079615854,0.054563012,0.061214253,0.08034578,0.047429916,0.09089564,0.10171043,0.03973248,0.009006099,0.08324478,0.05377893,-0.10144356,0.0029307124,0.084903345,-0.12437916,0.029578615,0.10119377,-0.021249784,0.092298836,6.9376954e-05,0.124074854,0.10172808,-0.08077629,-0.0130914375,0.08692334,-0.08027989,-0.12942773,0.15690225,0.013228486,-0.13709404,-0.059872404,-0.006617688,-0.07277162,0.06845737,-0.078178346,0.080752335,0.25472507,0.03283355,-0.08719349,0.06075033,0.16250424,-0.05172964,0.17872812,0.12103032,-0.15677561,0.008752052,0.02025713,-0.028020008,-0.07949491,0.03921821,-0.10335509,0.08431354,0.08657135,-0.14859825,-0.054395434,-0.038928773,0.0058028447,-0.16148438,0.03897553,0.104158215,0.04857481,0.07143723,0.07442278,0.043276962,0.07524368,0.05178201,-0.054477844,0.11626856,-0.03732582,0.08230226,0.066810824,-0.054320924,-0.012783507,0.086298175,0.09606825,0.056576148,0.00084266893,-0.10578395,-0.0578794,0.08973636,-0.104480386,0.024031978,-0.020420248,0.10707085,0.013313024,0.14132962,-0.12638317,0.06991277,-0.038802873,-0.026255827,-0.129719,0.017579267,0.03801169,0.030848118,0.044773817,0.16560225,-0.06531518,-0.025459578,-0.04607558,0.12238914,0.018602854,-0.30360645,-0.14685182,-0.1545386,-0.068262056,0.11075609,0.12296954,-0.071379796,-0.040243514,-0.050135553,0.112393826,-0.19047253,0.053568844,0.052703314,0.07674937,-0.12527335,-0.02185762,0.19531967,0.02047362,0.015992561,-0.07021095,0.038380366,0.024465352,0.059314214,0.12603682,0.03911452,-0.059998028,-0.036460347,0.008103137,0.048913214,0.024125855,-0.07725871,0.007652097,-0.038428225,0.012975738,0.054405745,-0.03595086,-0.0007991231,-0.0036500094,0.028279329,0.05083011,0.20720676,0.054740384,-0.26003686,-0.0567126,-0.11779975,-0.034727857,0.18534188,-0.058075503,0.11887389,-0.07819433,0.082015045,-0.13190892,-0.026620088,-0.12778148,-0.03409275,0.030187663,-0.11979759,-0.044620104,0.10401762,-0.15709914,-0.01417328,0.04713886,-0.05888852,-0.0015872434,-0.09971072,-0.05053896,-0.01773683,0.15323909,0.12900452,0.18038164,-0.007645804,-0.061467167,0.049908563,0.104295634,-0.13419026,0.07844067,-0.045418918,0.056956097,0.18140881,-0.06973704,0.002817493,-0.040763587,-0.048631225,0.004305513,-0.023825219,-0.049757205,-0.094995886,-0.0645577,-0.0042785495,-0.022919975,-0.18716021,0.16308215,-0.05546648,0.02460767,0.063158005,0.010623941,0.00022041345,0.047142822,-0.117517926,0.020469591,-0.0376543,-0.06581321,0.06625212,0.00055176695,-0.10004021,-0.17307876,-0.14884308,0.025168708,-0.140885,-0.025608717,-0.105112575,0.054642603
air,-0.03486092,-0.119587705,-0.035456087,0.13294835,0.101983555,-0.024495443,0.1746018,-0.061714437,-0.04763732,0.107246816,0.08450226,-0.015750773,0.07076337,-0.1595624,0.06922265,0.07882314,0.116601735,0.03943498,-0.1202485,0.17146221,0.11288457,0.019788219,-0.039526086,-0.14041938,-0.17984432,-0.013374391,-0.08111549,0.10413833,-0.062286258,-0.15505673,0.14683034,-0.027324483,-0.12982713,-0.0033852465,-0.04069698,0.19679447,0.21068192,0.015679887,0.15913858,-0.13811986,-0.07714101,0.24466914,-0.060025975,-0.097689986,0.06962077,0.04204004,0.084184736,0.090234324,0.07456808,0.13480613,0.036031,-0.0015611073,0.08250543,0.06910248,-0.08094694,0.008349225,0.09930531,-0.15227646,0.026803235,0.17381798,-0.018453222,0.09124141,-0.033537522,0.09782327,0.118274964,-0.069722384,0.0046891756,0.08791664,-0.06410944,-0.13291284,0.18769495,0.0024651324,-0.10852222,-0.060095906,-0.021744587,-0.06379784,0.08783759,-0.08639623,0.06070324,0.27829373,0.024656836,-0.0716199,0.05448122,0.15504742,-0.06043655,0.17425527,0.13508095,-0.17843743,0.015332677,0.044295367,-0.0029525664,-0.084714085,0.030097902,-0.10195807,0.070030525,0.05302498,-0.15752609,-0.053861894,-0.05844752,0.017803943,-0.17116821,0.05250662,0.088813685,0.06715426,0.07935849,0.07074602,0.066870585,0.050655395,0.05681883,-0.07179263,0.12541305,-0.05396394,0.05824286,0.067431696,-0.05991748,-0.014158657,0.08389289,0.106412105,0.035719834,0.017329257,-0.11370785,-0.07218028,0.08115733,-0.10661262,0.042930145,-0.007665839,0.087962754,0.0073951627,0.16217841,-0.1288014,0.09839702,-0.032470047,0.00030425383,-0.14109094,0.006987225,0.052231602,0.016390655,0.043343432,0.15941611,-0.059649717,-0.026431965,-0.09114536,0.13005953,0.019006839,-0.32431242,-0.12318457,-0.15814541,-0.04645522,0.11326129,0.112160124,-0.04664126,-0.04990072,-0.019594682,0.10424853,-0.18111424,0.043816634,0.074361265,0.1037903,-0.12065569,-0.010639385,0.20792468,0.021139912,0.0020192731,-0.111861214,0.053712633,0.027602077,0.058872975,0.11192321,0.061327487,-0.09474193,-0.026000906,0.01528183,0.07497013,0.03144389,-0.05890928,-0.0020165332,-0.054324057,0.037840206,0.067641206,-0.05340975,-0.01973483,0.010180105,0.024676532,0.03286915,0.22895753,0.02486268,-0.28160265,-0.073846795,-0.13182667,-0.052311152,0.22374861,-0.05065971,0.1007899,-0.04797445,0.13947204,-0.09867369,-0.039489176,-0.1334777,-0.03881203,0.05077767,-0.10855184,-0.016315384,0.0842159,-0.14806597,-0.026209122,0.046373148,-0.0627643,-0.027278546,-0.096535765,-0.05989167,-0.01783963,0.14920291,0.13932306,0.17957754,0.033333927,-0.05825298,0.0848363,0.11934989,-0.16286878,0.09060041,-0.03397362,0.04477493,0.161431,-0.10444171,0.025194352,-0.035243306,-0.01700487,0.00062332687,-0.02021998,-0.049362864,-0.059228633,-0.061982747,0.008657693,-0.030924167,-0.18538933,0.17178331,-0.0770349,0.006676099,0.061875526,0.00067310536,-0.024626495,0.06549631,-0.072465114,0.027637923,-0.03208158,-0.07680262,0.097015016,0.01703589,-0.07801728,-0.14052849,-0.11383592,0.007821098,-0.09502785,-0.041491173,-0.09168575,0.059272073
all,-0.053742897,-0.14032458,-0.05026088,0.17992714,0.0786034,-0.028928185,0.19711374,-0.08573302,-0.04226364,0.10624751,0.06883096,-0.042617906,0.09732537,-0.17304946,0.07233066,0.099736415,0.11513785,0.04990626,-0.16492438,0.22234513,0.14125802,0.024976514,-0.0748974,-0.16099155,-0.18400356,-0.015368235,-0.060595136,0.14274026,-0.06505006,-0.20370355,0.16075657,0.0006719312,-0.13547477,-0.027038455,-0.035146195,0.2147361,0.21113409,0.024656927,0.18212248,-0.15533856,-0.11041192,0.26660267,-0.038046055,-0.124893755,0.12181883,0.022863911,0.06924002,0.0786185,0.10834766,0.17939578,0.054762427,0.0054988405,0.07022409,0.081827424,-0.124191344,-0.023430495,0.10723695,-0.17030708,0.012867419,0.20809472,-0.02936391,0.07694342,-0.033806626,0.10203802,0.07381458,-0.051481962,-0.0021785952,0.097780965,-0.08204616,-0.12843083,0.19311571,0.016796488,-0.14837193,-0.07583102,0.0031939014,-0.07094802,0.115123324,-0.08325366,0.100433774,0.29646608,0.0398609,-0.091904335,0.090824924,0.17844124,-0.029727492,0.14622886,0.14089707,-0.2052937,0.008095747,0.05329933,0.019419914,-0.07644477,0.012591606,-0.13871133,0.088063,0.07040266,-0.1667751,-0.06499229,-0.100130945,0.011175635,-0.17858022,0.06404306,0.093221314,0.06973821,0.0703188,0.1188204,0.06485277,0.06023708,0.042587355,-0.04432883,0.13584948,-0.075062856,0.07332997,0.08314904,-0.0707802,-0.0214053,0.11078048,0.1002468,0.013190445,0.027357664,-0.10793539,-0.06339278,0.13232113,-0.12775984,0.06422,-0.021925388,0.06449415,-0.011180619,0.16551605,-0.13207291,0.08321531,-0.042231895,0.005763919,-0.12260955,-0.0067378054,0.07416314,0.011920449,0.056997295,0.17944801,-0.06452408,-0.045359153,-0.04461744,0.15216008,0.01679769,-0.40290228,-0.16928539,-0.19439366,-0.08460864,0.14177315,0.15774235,-0.06625349,-0.076478645,-0.070313506,0.13164261,-0.2175803,0.043773882,0.10297074,0.09602433,-0.14100663,-0.031347495,0.26933968,0.03754883,-0.03715454,-0.1294178,0.077932484,0.03958771,0.07205824,0.11030598,0.074126676,-0.07146307,-0.018719103,-0.0030097074,0.109732725,0.08359158,-0.08451161,0.019180443,-0.080077454,0.041816097,0.037683077,-0.064196795,-0.01921918,-0.0047902046,0.051605567,0.0115998695,0.3004621,0.04005385,-0.33399075,-0.07121203,-0.18288611,-0.047802184,0.23639007,-0.035560783,0.1702982,-0.09238551,0.16927071,-0.1682327,-0.034440942,-0.1952155,-0.049083926,0.06886894,-0.1735267,-0.04720937,0.105744675,-0.21447767,-0.048427567,0.08088552,-0.14089309,-0.026854819,-0.1158219,-0.068289004,0.027629688,0.19784781,0.16314258,0.23589677,0.038990334,-0.05912012,0.089091174,0.11336919,-0.20278087,0.10300152,-0.08559209,0.07520807,0.21756808,-0.11532906,0.03055313,-0.065331444,-0.051903713,0.008126439,-0.04712809,-0.03928651,-0.120516464,-0.090894446,0.013213811,-0.043497857,-0.2531739,0.24765112,-0.12442048,0.02412449,0.08492019,0.01959968,-0.00026645782,0.07319165,-0.07347252,0.04126537,-0.053240627,-0.0715462,0.11626039,0.008487164,-0.11945725,-0.2181774,-0.14246479,0.027437195,-0.121096,-0.045044713,-0.10848019,0.08151947
allowed,-0.009478917,-0.11582629,-0.012062415,0.10588906,0.07125379,0.014143347,0.13973176,-0.07174954,-0.06495279,0.1069421,0.018348752,-0.026631432,0.08802814,-0.16170126,0.09191675,0.09927087,0.10147552,0.056487456,-0.09464731,0.1502849,0.09728479,0.05892358,-0.07316072,-0.1217159,-0.14711276,0.016195241,-0.03510572,0.07723736,-0.031940494,-0.14361179,0.102565326,-0.01886919,-0.1002375,-0.00040110762,-0.033323932,0.16774039,0.16089424,0.023529796,0.0958231,-0.08917613,-0.048049312,0.15565236,-0.0071977316,-0.07141341,0.05108739,0.07036426,0.086067975,0.02874003,0.09016105,0.08655636,0.035617873,0.007339574,0.079417035,0.05122826,-0.12069157,-0.0012003873,0.08773785,-0.11412969,0.028384559,0.06912545,-0.023137407,0.09052728,0.020782482,0.1389458,0.09247905,-0.089180216,-0.020492766,0.0843476,-0.08889194,-0.11829783,0.14779307,0.030696895,-0.14969681,-0.060854103,-0.0018841787,-0.080420054,0.058825698,-0.071996234,0.092519656,0.24790686,0.028114373,-0.09313833,0.066695206,0.17122522,-0.05072729,0.1692048,0.10912253,-0.1452265,0.012908092,0.011288912,-0.03957094,-0.077943355,0.04930255,-0.10450421,0.08942597,0.115751736,-0.1457041,-0.056846987,-0.02994704,0.009563161,-0.15530768,0.044995397,0.112724826,0.0347419,0.066232994,0.08547572,0.043096974,0.085938826,0.053940095,-0.040660653,0.11348774,-0.0333594,0.08551283,0.063475296,-0.05719308,-0.011461431,0.08847341,0.108976945,0.066096306,-0.021777129,-0.10596697,-0.04911078,0.08711606,-0.09989105,0.018404938,-0.025182266,0.109720305,0.015087547,0.127731,-0.12463428,0.053259168,-0.036831576,-0.036883958,-0.12588893,0.027207062,0.03309338,0.044750016,0.041657697,0.15619431,-0.061948333,-0.021991491,-0.032096654,0.11755957,0.012026355,-0.2877801,-0.172118,-0.13912342,-0.07167311,0.11125128,0.12234105,-0.077800296,-0.03631771,-0.06784788,0.11807389,-0.19771527,0.0516566,0.03855934,0.055027694,-0.124541126,-0.04370314,0.19025469,0.017941017,0.024900334,-0.046634167,0.023859248,0.019924847,0.063637525,0.13701916,0.029087463,-0.043961067,-0.04649731,0.006533063,0.038986765,0.030429577,-0.08136852,0.022335283,-0.031051185,-0.0102804005,0.05463078,-0.039987016,0.0047508194,-0.009433658,0.026864272,0.05279709,0.20188749,0.074565366,-0.25410423,-0.05435023,-0.11445277,-0.021080444,0.17657968,-0.05895375,0.1300463,-0.10280505,0.06240925,-0.14374796,-0.008843317,-0.12849623,-0.0453129,0.01965959,-0.12706494,-0.06162302,0.114552274,-0.1734707,-0.016651,0.058069184,-0.06534393,0.013977455,-0.10937191,-0.038522974,-0.014042115,0.16020314,0.12686037,0.18202563,-0.027431374,-0.07307527,0.037581794,0.10096995,-0.1195269,0.06717673,-0.03441889,0.0627596,0.18042384,-0.0572782,-0.010991926,-0.04667626,-0.060096174,0.012190358,-0.018155936,-0.048242763,-0.10421767,-0.056046084,-0.0145151345,-0.021633869,-0.18577182,0.17070061,-0.04136233,0.027890887,0.06897527,0.006199693,0.014894889,0.0325746,-0.15190372,0.015673624,-0.02551627,-0.059221677,0.062457584,-0.012636181,-0.110392146,-0.18950416,-0.18172482,0.033402022,-0.16193706,-0.036817215,-0.120516255,0.04865402
almost,-0.029455055,-0.14470033,-0.031393822,0.14827985,0.105952054,-0.008248056,0.187617,-0.08360828,-0.071516916,0.12665598,0.06590188,-0.02462652,0.09923448,-0.20471355,0.10355774,0.10785121,0.1274907,0.057707284,-0.12682523,0.19255982,0.12225722,0.039471965,-0.078624025,-0.16595998,-0.20326683,0.0065468485,-0.06753911,0.108847655,-0.051282316,-0.19409178,0.14880292,-0.029925093,-0.1487697,0.0039185574,-0.0391716,0.21855666,0.23105335,0.024464225,0.14742813,-0.13483624,-0.076918006,0.24895075,-0.026833225,-0.10771346,0.07114852,0.0691722,0.0987736,0.06927547,0.10396915,0.13665883,0.054152414,0.0112824645,0.09956805,0.07659083,-0.12514293,0.005445362,0.10722538,-0.15739214,0.027911577,0.14741623,-0.028212635,0.11302497,-0.00738376,0.14932537,0.12672636,-0.09053521,-0.015578972,0.10478215,-0.08534559,-0.16174969,0.19708338,0.009521853,-0.16268265,-0.07592999,-0.012013181,-0.08647958,0.084631704,-0.100259215,0.09475975,0.31309873,0.038565863,-0.09265875,0.080500655,0.19354612,-0.064846,0.20701203,0.15112875,-0.19818534,0.019037843,0.03048285,-0.02618517,-0.09996254,0.05017688,-0.122598596,0.09909322,0.09693669,-0.18203525,-0.06522881,-0.05046295,0.00653463,-0.19944292,0.048384212,0.12632954,0.065327115,0.07990182,0.09062163,0.06711226,0.083116956,0.06416317,-0.07370809,0.13743588,-0.050048877,0.09038448,0.083776824,-0.07232707,-0.017940314,0.10797294,0.123369545,0.060423274,-0.0019015719,-0.13196068,-0.07634145,0.10767436,-0.122690514,0.036528137,-0.013200818,0.12857237,0.015613702,0.17937513,-0.14990698,0.08325077,-0.04334404,-0.020709695,-0.15776531,0.018132742,0.046728715,0.030822936,0.049402636,0.199556,-0.07358883,-0.029128036,-0.06943985,0.15058681,0.019765252,-0.36890996,-0.18048716,-0.18217781,-0.081049405,0.13805516,0.14414738,-0.07766114,-0.04599874,-0.05587064,0.1328999,-0.22453894,0.06376687,0.07127655,0.09879686,-0.14826952,-0.027082367,0.22826122,0.022731902,0.01529783,-0.09331353,0.051902264,0.037269063,0.06485932,0.14152099,0.05914948,-0.07350731,-0.040531863,0.0115223555,0.071325906,0.03585813,-0.089097396,0.009094924,-0.04515048,0.022626841,0.069905125,-0.04929158,-0.011324022,0.0017757692,0.03644162,0.05336461,0.2601788,0.05760029,-0.31384915,-0.063904,-0.14209178,-0.04801216,0.23545998,-0.06771776,0.1339033,-0.08546053,0.113993175,-0.15581593,-0.037580486,-0.15219185,-0.048361756,0.041921947,-0.14195415,-0.043452755,0.11616654,-0.18811285,-0.02496416,0.0632119,-0.07043412,-0.007956262,-0.12063992,-0.06961438,-0.01803268,0.18564741,0.15949759,0.21943039,-0.011226395,-0.074543275,0.06340434,0.13525791,-0.16919614,0.08856205,-0.04909089,0.06817436,0.20911336,-0.09575589,0.0049403235,-0.04938736,-0.052533027,0.0027417054,-0.02279462,-0.06341615,-0.10600352,-0.06838164,0.0039010104,-0.034534097,-0.21721296,0.1951821,-0.079115815,0.018514931,0.07445931,0.008091782,-0.0076821446,0.06968023,-0.1347781,0.026334153,-0.042465184,-0.08692505,0.09620557,0.0038446407,-0.115788616,-0.20638867,-0.17494228,0.02310588,-0.15593545,-0.03985927,-0.13419765,0.06057651
alone,-0.013932719,-0.13911352,-0.023007164,0.13168247,0.091056235,0.0058530667,0.1671294,-0.08099832,-0.06553208,0.115376554,0.042968266,-0.018512912,0.0978988,-0.18836355,0.09631821,0.11140939,0.12230236,0.061208166,-0.11668641,0.17851752,0.114977345,0.047996487,-0.07941647,-0.14820437,-0.17504679,0.014172502,-0.051524393,0.092088446,-0.041795854,-0.16493425,0.12235941,-0.022349322,-0.12572198,0.0016120439,-0.041183446,0.19377078,0.1976662,0.023931518,0.11778019,-0.112123944,-0.06348249,0.19735782,-0.016738063,-0.08861706,0.06468898,0.074751124,0.097813256,0.048918154,0.09758076,0.1117342,0.03842138,0.0024008937,0.08924177,0.06513392,-0.12710083,-0.0006444642,0.098860614,-0.14045475,0.030262232,0.10202851,-0.026150009,0.10480074,0.0055905897,0.15372504,0.11218392,-0.086147875,-0.015150602,0.09656813,-0.096309006,-0.14390822,0.178247,0.022140538,-0.16455169,-0.067517765,-0.013298774,-0.08757309,0.07540157,-0.08452088,0.09596702,0.28311482,0.027999008,-0.09724087,0.07052643,0.18604448,-0.056069,0.19461434,0.13737255,-0.1759545,0.017617825,0.026207833,-0.032707773,-0.09579998,0.053621385,-0.12126788,0.09457637,0.11002714,-0.16635017,-0.065087736,-0.03861736,0.0069683264,-0.18083505,0.048527274,0.11415993,0.051469866,0.0834334,0.08834231,0.05256884,0.09111377,0.06713157,-0.05952761,0.13627128,-0.04395631,0.09400352,0.072522186,-0.06299036,-0.013002857,0.10283476,0.121474765,0.070757784,-0.011969965,-0.12320926,-0.058557827,0.09954233,-0.11366685,0.029267961,-0.022863146,0.12243248,0.018850788,0.15019374,-0.13702247,0.07525383,-0.035530813,-0.031364832,-0.15079413,0.023183495,0.040036973,0.03824379,0.047948062,0.17809291,-0.074337505,-0.023010053,-0.05729292,0.13688503,0.015532185,-0.3409217,-0.17505598,-0.16910878,-0.07162154,0.1303768,0.13344629,-0.07604768,-0.045519106,-0.06828457,0.12869762,-0.21951775,0.05577968,0.05071067,0.079114094,-0.14084877,-0.032020193,0.22016342,0.027687721,0.025752878,-0.066402584,0.031487156,0.026665233,0.06584384,0.14456108,0.039172824,-0.06227308,-0.046336766,0.013414517,0.052188046,0.033792067,-0.08542651,0.013160867,-0.038911656,0.0046659918,0.067256235,-0.042415157,-0.0008996001,-0.010643031,0.028752381,0.055381022,0.23150563,0.06813139,-0.29181507,-0.06496139,-0.12970178,-0.034516733,0.2162839,-0.058114648,0.14135477,-0.095757924,0.09498006,-0.15331809,-0.024607668,-0.15087424,-0.04976322,0.025907561,-0.13366078,-0.05521561,0.12060942,-0.18190822,-0.015284344,0.056680683,-0.07482472,-0.0004922077,-0.120215885,-0.052702256,-0.012029936,0.17811723,0.14246354,0.20557246,-0.018693341,-0.08037429,0.055550314,0.11426934,-0.15187594,0.07999785,-0.04100472,0.06738607,0.19806252,-0.07441499,-0.0035429727,-0.050051477,-0.054032363,0.005802297,-0.023482947,-0.056438956,-0.100289635,-0.06691524,-0.007326623,-0.028764702,-0.21346028,0.18658507,-0.056429762,0.01994426,0.07105755,0.0050419974,0.004973919,0.05130251,-0.14239544,0.021720065,-0.036413036,-0.075893804,0.07602194,-0.0027251644,-0.11569227,-0.19604854,-0.18077284,0.032505877,-0.16217867,-0.038581133,-0.127266,0.06171272
along,-0.025039991,-0.14162189,-0.034847412,0.13823353,0.1099368,-0.01213984,0.18266615,-0.072151,-0.06523736,0.124017075,0.07653328,-0.02339345,0.088993,-0.19137949,0.08638065,0.10150267,0.12588781,0.05331046,-0.12806468,0.19324866,0.123724215,0.03519066,-0.062573336,-0.15757711,-0.18964146,-0.0056162574,-0.072849624,0.104968965,-0.056382786,-0.17860511,0.15124358,-0.032981306,-0.14165063,-0.0039262963,-0.041046366,0.21392028,0.22641169,0.019736802,0.15395981,-0.13823634,-0.07333451,0.24121729,-0.04380365,-0.107373975,0.066198096,0.069748074,0.099379025,0.080507234,0.097878166,0.13332914,0.04750807,0.004579136,0.10069636,0.073783256,-0.10999812,0.0023974292,0.105961,-0.16175213,0.03062366,0.15165079,-0.024911398,0.10807135,-0.011010424,0.13558064,0.12504654,-0.08648381,-0.00865223,0.10142024,-0.08269185,-0.14916319,0.20374043,0.008806036,-0.1438957,-0.07275137,-0.018884314,-0.07885576,0.08570816,-0.098059,0.08843534,0.30655357,0.035182603,-0.091526695,0.065308414,0.18563396,-0.06674582,0.20499977,0.14151432,-0.194843,0.015811613,0.038396176,-0.017898627,-0.09619639,0.042582512,-0.113602795,0.09143146,0.08707554,-0.1783534,-0.06815853,-0.053035706,0.014599587,-0.18804024,0.056386646,0.115334,0.06448562,0.0885885,0.086307645,0.06935903,0.07288557,0.06903089,-0.074250326,0.13933009,-0.056171108,0.08031471,0.076665975,-0.067693226,-0.01663516,0.10140308,0.12652256,0.060621817,-0.00058848807,-0.13051356,-0.07464917,0.1006314,-0.11637342,0.033572238,-0.009900946,0.11624901,0.018673485,0.17689586,-0.14625196,0.09496535,-0.045413665,-0.018290928,-0.15505488,0.013623188,0.051002212,0.03350822,0.047706336,0.18589038,-0.07407746,-0.025131853,-0.08661512,0.15153506,0.023165422,-0.36468154,-0.16235468,-0.17910507,-0.068946004,0.1255709,0.13708252,-0.06846479,-0.047710355,-0.041846737,0.12386818,-0.2149906,0.054406084,0.06420452,0.09831604,-0.14340547,-0.018907875,0.2223085,0.024823047,0.01314934,-0.09878301,0.04805044,0.034027725,0.071229726,0.13489756,0.05553415,-0.08549124,-0.041611854,0.015417896,0.06374208,0.029174019,-0.080598846,0.009490656,-0.049893353,0.025167702,0.0713458,-0.05855332,-0.010414047,0.00784604,0.025071308,0.052817382,0.25117075,0.047842737,-0.3116232,-0.07118203,-0.14109457,-0.045957953,0.24191673,-0.05976441,0.121047564,-0.077576816,0.12784855,-0.13016482,-0.038598802,-0.14828575,-0.050279167,0.04591333,-0.13076504,-0.03822316,0.107148804,-0.17973912,-0.0206554,0.057165284,-0.06425786,-0.011003448,-0.11308338,-0.06093875,-0.020342957,0.17780714,0.15482406,0.20838669,0.003389519,-0.06853921,0.077520244,0.12853089,-0.16393888,0.098431066,-0.041132692,0.05817674,0.1927685,-0.10694005,0.009310825,-0.045054536,-0.04252881,0.002141121,-0.01725977,-0.061744217,-0.09267432,-0.0712333,0.00136126,-0.029823018,-0.21464752,0.19104059,-0.06860137,0.010462526,0.06976718,-0.00019503587,-0.012704008,0.069300175,-0.120178364,0.025441991,-0.031485766,-0.08559982,0.10107094,0.010107738,-0.102770716,-0.18006824,-0.16284607,0.017986188,-0.13983609,-0.041536313,-0.1234266,0.06620635
already,-0.022643387,-0.14642145,-0.0058844,0.12854016,0.09716652,-0.0008558554,0.17766424,-0.09605164,-0.07655331,0.124626964,0.04259265,-0.0060624597,0.09617926,-0.19541831,0.11028834,0.12634489,0.114642985,0.06383235,-0.101220824,0.1870927,0.12547731,0.057644203,-0.092533804,-0.15786551,-0.18246208,0.028143613,-0.04424924,0.10487263,-0.035500143,-0.19552831,0.113244295,-0.023061244,-0.13285504,0.004060521,-0.033324923,0.20036224,0.21032706,0.027640127,0.12450316,-0.10026679,-0.056548428,0.20990285,0.01511784,-0.08366772,0.05310467,0.09045057,0.10799949,0.039337162,0.1052489,0.10102131,0.045868095,0.020130547,0.09550152,0.058999237,-0.1278735,0.0001838496,0.095108636,-0.12963176,0.021836584,0.09112449,-0.03489838,0.10622424,0.02861116,0.15921178,0.113719285,-0.110586025,-0.028374812,0.09465913,-0.09600556,-0.14938167,0.16971837,0.026213603,-0.17922267,-0.06801281,-0.014310643,-0.08588892,0.079520956,-0.08995702,0.10548978,0.29737556,0.034666408,-0.10182826,0.087590136,0.19719565,-0.05778581,0.20799796,0.14650936,-0.1813225,0.022186268,0.010386881,-0.04479896,-0.093147315,0.06450208,-0.12585357,0.10567818,0.13188533,-0.18283188,-0.067831285,-0.043140676,0.0005100638,-0.1939691,0.045408145,0.13346335,0.06065052,0.07832828,0.099238686,0.057918258,0.10052196,0.06357137,-0.065620676,0.13886048,-0.036421534,0.106222026,0.077495955,-0.08382321,-0.018252652,0.11888876,0.11817327,0.07440585,-0.017462606,-0.12061203,-0.06655212,0.11264203,-0.12896158,0.026798932,-0.025611188,0.14863601,0.01750533,0.16784997,-0.15885487,0.08066747,-0.058810897,-0.060188606,-0.16439603,0.02904404,0.03522554,0.040787183,0.055323865,0.1855561,-0.08420566,-0.02802079,-0.04048669,0.13119207,0.029889602,-0.35534695,-0.18478054,-0.18274224,-0.106800266,0.14693384,0.13176323,-0.08824947,-0.045161262,-0.07396024,0.13572234,-0.24276358,0.07083241,0.055234488,0.079598926,-0.14823942,-0.02516113,0.23073274,0.029450083,0.027830748,-0.061561424,0.04069618,0.035487223,0.066032514,0.15424098,0.0316649,-0.05889463,-0.051595375,0.010362083,0.069419116,0.023559984,-0.08801875,0.012714591,-0.019503351,0.009569071,0.057714272,-0.037891507,0.015655367,-0.010731724,0.03802465,0.08008421,0.25836477,0.08332301,-0.30795625,-0.066059776,-0.13808432,-0.03926064,0.21791428,-0.058686424,0.14587152,-0.10051815,0.075577736,-0.17841935,-0.028185189,-0.15192983,-0.022580186,0.02535929,-0.14782229,-0.06016508,0.11942714,-0.19516122,-0.016962253,0.07342214,-0.06303366,0.008326671,-0.12672536,-0.058164902,-0.017753117,0.20476644,0.13934478,0.23736072,-0.049922545,-0.07353459,0.057902005,0.120733894,-0.16035686,0.08691289,-0.05161653,0.08463353,0.23745808,-0.0595651,-0.012121505,-0.05761951,-0.07538311,-0.0021809586,-0.028157283,-0.046439826,-0.13195787,-0.06820116,-0.0031725853,-0.016159689,-0.20483424,0.19485213,-0.06856519,0.034724895,0.07546994,-0.0054610083,0.010335456,0.05434749,-0.16780406,0.0077855163,-0.045014363,-0.08875683,0.06256184,-0.016261168,-0.12549865,-0.23744628,-0.19363655,0.037939366,-0.18506499,-0.031756517,-0.12561138,0.05591764
also,-0.016727326,-0.1470453,-0.02178384,0.13872267,0.0886003,0.008682444,0.17353946,-0.08899311,-0.071422614,0.11813368,0.03493359,-0.025791915,0.10795321,-0.19451243,0.10816863,0.1267371,0.12097471,0.06320101,-0.12390896,0.19736236,0.1270177,0.060988598,-0.097647086,-0.16599505,-0.18356162,0.018731534,-0.039161116,0.09727736,-0.040445317,-0.1872406,0.12387114,-0.022904301,-0.133436,0.00056076073,-0.029911539,0.20212427,0.20599562,0.026413767,0.124790706,-0.11373432,-0.07625129,0.20711558,-0.012632037,-0.096757144,0.07623061,0.07889377,0.10663234,0.042742025,0.10484827,0.11516321,0.04646753,0.016525073,0.08646131,0.07262573,-0.13191965,-0.0047412347,0.10047659,-0.13456434,0.024479203,0.1011382,-0.03161681,0.10343417,0.016443675,0.15521325,0.10300939,-0.09607479,-0.022231847,0.1056584,-0.09752643,-0.14639139,0.17914397,0.026230684,-0.18515289,-0.07326381,-0.0055369283,-0.087218754,0.07927035,-0.08651768,0.10929979,0.29240477,0.039573304,-0.10730837,0.08446151,0.20459129,-0.05907084,0.1979095,0.13738894,-0.18570474,0.018364044,0.012978728,-0.036462728,-0.101257816,0.051547524,-0.12983975,0.10278712,0.12573317,-0.17998995,-0.07323059,-0.047867805,0.0032460142,-0.1947353,0.04573243,0.1294038,0.058335736,0.08626957,0.109279335,0.065996125,0.09646544,0.06895482,-0.06627434,0.13111357,-0.042032525,0.09826452,0.07577427,-0.07814158,-0.009165164,0.110441014,0.12151077,0.07181969,-0.009562155,-0.1250677,-0.061590653,0.121191114,-0.11977335,0.034586646,-0.025900126,0.13661301,0.017474558,0.15957633,-0.15281387,0.076772854,-0.04089468,-0.047209527,-0.16306342,0.029624717,0.045275457,0.04401489,0.050358824,0.19098757,-0.07877284,-0.029407864,-0.04401962,0.14527884,0.024298599,-0.36843997,-0.19667004,-0.17653948,-0.10137461,0.14382663,0.14950697,-0.09383093,-0.04836975,-0.08491081,0.13569811,-0.23925082,0.0617756,0.056458242,0.077817954,-0.15091902,-0.036668263,0.2351411,0.028519569,0.025913564,-0.059337784,0.039062362,0.030827884,0.07931637,0.16044341,0.046332944,-0.04886103,-0.042582713,0.010866769,0.06434303,0.042718977,-0.09816465,0.024482997,-0.032299854,0.007255724,0.06617785,-0.038087778,0.0056818784,-0.0058714333,0.033738557,0.06367916,0.25722197,0.08012067,-0.31259084,-0.066635266,-0.14357062,-0.037385616,0.21732652,-0.06390513,0.15982479,-0.11508028,0.095365785,-0.1844468,-0.020286499,-0.16372053,-0.04766256,0.02133192,-0.15243372,-0.07088218,0.13544555,-0.21091989,-0.02593843,0.07230748,-0.08435532,0.008253203,-0.12347064,-0.062054135,-0.009408885,0.20441404,0.15515748,0.2344142,-0.030443933,-0.08075427,0.06062531,0.12281967,-0.16092567,0.08847412,-0.052579947,0.07664,0.21859181,-0.07403167,-0.006023369,-0.052778013,-0.067931354,0.010304645,-0.029019943,-0.051394224,-0.119157895,-0.06458514,-0.0078045507,-0.029510709,-0.21891196,0.20316945,-0.06927538,0.035210323,0.07649762,0.010671826,0.018110672,0.049491987,-0.16000515,0.024645612,-0.044947147,-0.08151836,0.0743864,-0.0051228115,-0.13505,-0.22775134,-0.19736384,0.037810624,-0.17988838,-0.038316786,-0.13146812,0.05649737
although,-0.013103248,-0.15001239,-0.01610319,0.13598888,0.08082348,0.019708756,0.16885926,-0.09479467,-0.09082404,0.12667747,0.019736553,-0.028656565,0.11719162,-0.20261423,0.109295204,0.12602103,0.12851244,0.069398314,-0.10754935,0.17436425,0.11724551,0.06354533,-0.09142432,-0.1533261,-0.1807742,0.021344882,-0.03296132,0.09398216,-0.035983246,-0.19151966,0.11400711,-0.029502572,-0.13295074,0.0027343724,-0.036285963,0.19848862,0.19727644,0.025130399,0.10123849,-0.10757806,-0.06048194,0.18000849,0.00661625,-0.08735211,0.06385709,0.08869951,0.11679445,0.02722584,0.110144556,0.095750764,0.048111577,0.015157296,0.093930766,0.05718212,-0.14739467,-0.008241976,0.09964078,-0.1337309,0.03352159,0.075880736,-0.0317476,0.10956847,0.032335415,0.17185359,0.11096729,-0.09680171,-0.033135608,0.11135029,-0.10185218,-0.154675,0.17427132,0.02659701,-0.19171773,-0.072856724,-0.005174608,-0.0957611,0.06884868,-0.082781956,0.117778316,0.29431266,0.034997396,-0.103024796,0.08584932,0.20542744,-0.06114579,0.2063073,0.12932184,-0.17553458,0.020011663,0.005616051,-0.042628486,-0.09292724,0.067905284,-0.12445739,0.11285457,0.13502224,-0.17665884,-0.064975776,-0.03712051,0.013228154,-0.19104862,0.04253348,0.13622075,0.047370117,0.076887384,0.09872954,0.051301435,0.104575016,0.06730287,-0.048199963,0.13032804,-0.04061087,0.10642206,0.08615691,-0.07593084,-0.016607516,0.11238616,0.12804566,0.08543972,-0.020683484,-0.12989959,-0.058169175,0.10815233,-0.11842272,0.027499538,-0.028197758,0.14209604,0.026900485,0.1538358,-0.15091957,0.059501454,-0.047435675,-0.044802226,-0.15083317,0.029754283,0.044687424,0.04669528,0.050089885,0.18994287,-0.08120801,-0.03033073,-0.029312445,0.14546888,0.017572531,-0.3543133,-0.20985946,-0.17314938,-0.09787432,0.13373367,0.14826737,-0.0958731,-0.03518261,-0.08971192,0.13477011,-0.23472603,0.05611756,0.03721634,0.059578106,-0.14595887,-0.04436634,0.21573743,0.020983458,0.029506685,-0.037719827,0.019787354,0.028847957,0.06812649,0.16475683,0.034637783,-0.040581178,-0.05102004,0.009753291,0.047655832,0.041865304,-0.10060251,0.027302466,-0.034248475,-0.010509301,0.053918242,-0.034373313,0.016184067,-0.01042289,0.03237082,0.06711948,0.24406,0.09853501,-0.30222076,-0.06092318,-0.13328753,-0.020826122,0.21297675,-0.06763528,0.15251876,-0.12069915,0.0708571,-0.1857444,-0.015828714,-0.14690405,-0.05446494,0.014757521,-0.15504023,-0.075690255,0.1402561,-0.20213668,-0.015578424,0.06721296,-0.08073041,0.024126125,-0.12377488,-0.050444864,-0.01785586,0.19393355,0.14376242,0.22394168,-0.050868202,-0.091968246,0.034725223,0.10949886,-0.14551407,0.072218224,-0.043949626,0.07929441,0.223159,-0.06079442,-0.017498601,-0.043773152,-0.077031426,0.01879369,-0.03144162,-0.06524785,-0.13658404,-0.05899995,-0.007066267,-0.020502038,-0.21688823,0.1904133,-0.05597744,0.028018225,0.07441386,0.01061968,0.027571868,0.03919203,-0.17968431,0.015151471,-0.038091205,-0.0777884,0.071464576,-0.012118983,-0.14587866,-0.23710905,-0.2199561,0.042220734,-0.20020942,-0.041055057,-0.14172205,0.051442817
always,-0.021705661,-0.16110945,-0.016521005,0.14667982,0.09335108,0.015777582,0.179665,-0.099965975,-0.08302204,0.13036574,0.031995688,-0.024253808,0.118866034,-0.21213827,0.12072511,0.13584389,0.124212384,0.06783771,-0.12375242,0.19248202,0.13105167,0.06332529,-0.09975339,-0.16757199,-0.18612915,0.018759854,-0.037120715,0.10221183,-0.042841736,-0.18980889,0.12548569,-0.014463133,-0.1384107,-0.004811676,-0.037734225,0.21703282,0.21124639,0.027952973,0.11923976,-0.1116565,-0.07069095,0.20995079,0.0051133316,-0.09227745,0.07972676,0.09090751,0.10963489,0.04022889,0.115646526,0.112524495,0.046407156,0.016643042,0.09342114,0.06925072,-0.14956874,-0.0004526408,0.10054024,-0.15061398,0.029345555,0.089051284,-0.03583825,0.118234165,0.028364971,0.1830143,0.10798959,-0.10717353,-0.025874082,0.111709096,-0.10616331,-0.14647174,0.18963681,0.032401923,-0.20289853,-0.07499328,0.0018687453,-0.09564034,0.07540061,-0.087912805,0.12235079,0.3132487,0.038282633,-0.11316174,0.09314183,0.2209734,-0.05422787,0.20764,0.14086173,-0.20003515,0.023199094,0.021003181,-0.04206276,-0.09999561,0.06203544,-0.13878839,0.112822704,0.14258891,-0.18508087,-0.07230843,-0.047892123,0.00024945856,-0.19705269,0.049249325,0.14188497,0.05027226,0.08038859,0.11485002,0.057236794,0.10913137,0.06696752,-0.05312396,0.13964501,-0.044430487,0.10316247,0.07847818,-0.07757737,-0.013623378,0.118935466,0.13103284,0.07652919,-0.014837971,-0.12473423,-0.065188706,0.1265933,-0.13051577,0.03311482,-0.031043204,0.14508261,0.018310128,0.15895966,-0.14928699,0.06486835,-0.03812629,-0.048466604,-0.1684605,0.028688692,0.044959366,0.05484588,0.052262697,0.20180538,-0.08303344,-0.027115041,-0.035181016,0.14394096,0.016162405,-0.3732313,-0.21290961,-0.18597446,-0.109270185,0.15192357,0.15959299,-0.0958634,-0.057040602,-0.09347069,0.14642222,-0.25534627,0.068377286,0.053633843,0.07326516,-0.15372463,-0.054703224,0.24206664,0.03177507,0.0328257,-0.06179593,0.034491546,0.021842431,0.08124047,0.16736199,0.03562526,-0.052733112,-0.0542023,0.007974248,0.06299165,0.043857962,-0.11330518,0.024004709,-0.028541751,-0.0057393108,0.06138559,-0.039316993,0.01150965,-0.015606793,0.03897368,0.06877102,0.2639614,0.09368945,-0.32656926,-0.065290265,-0.14595139,-0.026395475,0.22442123,-0.060991913,0.17636769,-0.12363629,0.08966975,-0.18793757,-0.015327561,-0.17366745,-0.04825404,0.020791413,-0.16452694,-0.08185378,0.14326555,-0.21910104,-0.02182428,0.08068517,-0.09042045,0.016977929,-0.14285015,-0.052643713,-0.009891112,0.20757838,0.15252149,0.23998353,-0.03690939,-0.08488801,0.04658286,0.12539843,-0.16767201,0.08780457,-0.05632671,0.0899824,0.22848403,-0.07605737,-0.013544085,-0.06481923,-0.081706084,0.012466724,-0.030056749,-0.052919142,-0.13278112,-0.06791764,-0.012529501,-0.031389676,-0.23928465,0.21562664,-0.059705433,0.04117681,0.080377385,0.005703189,0.022757094,0.046119977,-0.18400782,0.015936533,-0.047434118,-0.0828273,0.07335737,-0.013504872,-0.14726432,-0.25334993,-0.22363426,0.038019598,-0.20964347,-0.0421099,-0.14910842,0.066716895
am,0.02122871,-0.18232496,-0.027280837,0.13873075,0.04793124,0.120674886,0.11535357,-0.1056437,-0.10377947,0.15004987,-0.1175835,-0.054765295,0.1947739,-0.23465922,0.16846058,0.21048015,0.12647119,0.10137731,-0.11578123,0.14138979,0.07656541,0.13231438,-0.14670998,-0.12348868,-0.11060541,0.08954494,0.11020642,0.059601337,-0.012016556,-0.17582855,0.061420683,-0.0026569741,-0.09559327,0.004096818,-0.03279734,0.14637668,0.093465045,0.006440592,-0.0028474373,-0.044967532,-0.032888006,0.0057073664,0.09930466,-0.051923383,0.04900082,0.10511356,0.15179984,-0.08014324,0.13617595,0.03714963,0.0052899993,0.010055254,0.10089046,0.04435496,-0.2473497,-0.01620051,0.081097715,-0.08727175,0.036379304,-0.11392009,-0.03548855,0.11041626,0.1260756,0.23210274,0.08653068,-0.12508567,-0.070506915,0.14623956,-0.16392037,-0.087718315,0.14147988,0.07829961,-0.3510433,-0.07795779,0.04115716,-0.14299524,0.00763787,-0.059404466,0.16265288,0.31012395,0.048267763,-0.15414841,0.13066347,0.27453157,-0.011387186,0.19992162,0.09915575,-0.1939134,0.005489996,-0.008020146,-0.065407544,-0.12915227,0.119186684,-0.17643073,0.13462894,0.28109917,-0.12904432,-0.075184174,0.011773016,0.021467844,-0.17084883,0.017061437,0.20010419,-0.033364613,0.073789254,0.13131039,-0.003740069,0.18243353,0.088188946,-0.00015563254,0.1083066,-0.013397398,0.14117874,0.1156598,-0.06786337,-0.03366026,0.122191824,0.13805671,0.10496925,-0.084197335,-0.1190232,-0.018406166,0.122179806,-0.14584078,-0.015151652,-0.0666136,0.16795516,0.065130174,0.065553255,-0.09001772,-0.031974494,0.012904281,-0.08696414,-0.14521359,0.07372217,0.0758425,0.10066909,0.08186875,0.1991137,-0.10377755,-0.012962874,0.08325766,0.15496224,-0.017501999,-0.33288935,-0.33110142,-0.13653296,-0.13787639,0.16145329,0.18686378,-0.17176428,-0.039999086,-0.24093884,0.14317195,-0.2794834,0.06446953,0.0010649372,-0.034331497,-0.17773417,-0.12618232,0.2312115,0.0076693334,0.08146062,0.08098868,-0.051221367,-0.019242989,0.09664772,0.24226059,-0.014162753,0.039224494,-0.07722761,-0.008730878,-0.04672982,0.063434005,-0.17492808,0.061936088,-0.013103627,-0.112447865,0.05698747,0.0071894513,0.06881417,-0.04451953,0.034124367,0.06332367,0.19651644,0.23731175,-0.3097409,-0.040099397,-0.13899569,0.06298192,0.16972937,-0.08266822,0.23179275,-0.21641146,-0.0016815834,-0.25941813,0.052715246,-0.14343825,-0.100076474,-0.014021248,-0.22022341,-0.1637401,0.18991756,-0.28708115,-0.021293173,0.08426764,-0.13487993,0.11082822,-0.10703093,-0.008567422,0.0062507596,0.20087208,0.10224792,0.19433755,-0.11915507,-0.13269594,-0.06493044,0.06795382,-0.104910836,-0.0011787645,-0.05193098,0.13399492,0.20640782,-0.00351724,-0.09174862,-0.058767658,-0.15256079,0.06345578,-0.013348941,-0.06244651,-0.20411447,-0.044831607,-0.040534943,-0.003254401,-0.21131758,0.19980128,0.024813313,0.055690635,0.11440793,0.02064267,0.0877694,-0.031129118,-0.30910364,-0.06422211,0.007386938,-0.062760964,0.010234773,-0.03526514,-0.24811909,-0.32744035,-0.36155865,0.10068456,-0.3515805,-0.039022215,-0.22710647,0.043568194
amalia,-0.0041554747,-0.018086942,-0.0004673496,0.012828449,0.009800134,-0.002105527,0.021485182,-0.005744487,-0.008123983,0.0142534515,0.009718501,-0.005479676,0.011185169,-0.01768446,0.008156348,0.009437376,0.01185689,0.0049541905,-0.014578929,0.02201948,0.014470194,0.00061191776,-0.009083178,-0.013204915,-0.017987266,-0.0016870422,-0.008294156,0.00723031,-0.0024308786,-0.018822076,0.0182736,-0.0060305283,-0.014622845,0.0024480952,-0.0065927915,0.025995772,0.02219006,0.0016582619,0.016834065,-0.011427005,-0.007850544,0.024913967,-0.004579832,-0.009709023,0.008970408,0.0056533474,0.01422454,0.010956984,0.012089116,0.012242738,0.0013518274,-0.0031931843,0.009375004,0.009175498,-0.015251498,8.586487e-05,0.007867616,-0.0133140115,0.001917179,0.015579224,-0.006450615,0.009974775,0.0015629125,0.018631456,0.012933915,-0.011379639,0.0025454357,0.013360991,-0.012104499,-0.012830142,0.017871449,0.0002622862,-0.015369317,-0.0046372274,-0.004594774,-0.007929714,0.0113819,-0.014262225,0.008771127,0.03336654,0.0022334035,-0.00871516,0.0077276435,0.020915698,-0.0028828161,0.02087665,0.01196086,-0.017505268,-0.0014832666,0.0046600564,0.00026261294,-0.0123245325,0.0025736284,-0.010774056,0.011651772,0.01262133,-0.020059526,-0.0074732164,-0.00850475,0.0028801342,-0.020575834,0.00472373,0.014212906,0.009007454,0.007890067,0.011320717,0.009849597,0.006816539,0.009109467,-0.01062806,0.013690055,-0.002742658,0.008843945,0.0065420424,-0.0067704027,-0.0017225357,0.011851589,0.012708534,0.003814888,-0.0017304885,-0.015282855,-0.0044428436,0.009940956,-0.014085332,0.002236143,-0.0021209335,0.014538139,0.005853589,0.015043203,-0.016471969,0.0078527015,-0.0072819726,-0.0020120195,-0.018097358,0.0030876936,0.007368485,0.0009486673,0.003188689,0.019773468,-0.0054529677,0.0008119012,-0.0058901673,0.012568557,0.0016340942,-0.040388312,-0.01389081,-0.021732138,-0.0051501,0.017611116,0.011550388,-0.0050191307,-0.008427006,-0.001147543,0.016929273,-0.020237755,0.009026021,0.0066253147,0.010254584,-0.017700221,-0.00595155,0.024226753,0.0058666286,0.001560692,-0.0074519133,0.0018364697,0.004616583,0.005310141,0.014260206,0.0016551819,-0.011036409,-0.007388959,0.00036256007,0.008091938,0.006955115,-0.007906381,0.0037209268,-0.0076548834,2.9987023e-06,0.010144092,-0.005840148,0.0009420208,-0.0033053595,0.003989395,0.0086851325,0.025204292,0.0028849572,-0.031644836,-0.0045728227,-0.015629776,-0.005803164,0.025734302,-0.008862169,0.010530296,-0.005561509,0.010285555,-0.01784001,0.00015033201,-0.014318263,-0.0032880611,0.0040292195,-0.015594832,-0.0022453067,0.016331794,-0.01930666,-0.00016093852,0.006140054,-0.008003356,-0.0020910488,-0.0135081615,-0.004751127,-4.662449e-05,0.017063012,0.014221473,0.025951093,0.0010490372,-0.0073306956,0.0058478643,0.011596318,-0.01541817,0.0111799175,-0.005184334,0.009838341,0.020675672,-0.010647877,-0.0014980469,-0.006873279,-0.004348441,0.0018511667,-0.004818798,-0.0029418243,-0.007077362,-0.0054700384,-0.0025013657,-0.00621598,-0.021148037,0.016851086,-0.010959596,0.00534031,0.0043333517,0.0019265879,0.00039515443,0.007935013,-0.011404784,0.0030582084,-0.0008063468,-0.0074390783,0.012028232,0.0041213203,-0.011719846,-0.022870833,-0.015726265,0.0010767769,-0.012250632,-0.0010350766,-0.011172139,0.008982699
among,-0.029693376,-0.14349306,-0.024884379,0.13525796,0.10488015,-0.015970886,0.17963563,-0.075304046,-0.065623686,0.12466907,0.07124286,-0.022105984,0.0848051,-0.18496107,0.08087228,0.1000686,0.12789114,0.05572352,-0.122476555,0.1923407,0.13237086,0.028958714,-0.06352341,-0.15227123,-0.19357513,-0.0025831559,-0.07871333,0.11013964,-0.056564745,-0.17381662,0.15239897,-0.027945032,-0.13806681,-0.0016976565,-0.037740465,0.21609381,0.22663355,0.020933684,0.160071,-0.13399857,-0.07307864,0.24686481,-0.04598936,-0.11061708,0.07146929,0.06399175,0.0968723,0.07669653,0.09328692,0.13599022,0.042163957,-0.002457597,0.09054178,0.074584,-0.115370266,0.0011334774,0.10661797,-0.1607518,0.026448304,0.1570982,-0.028610954,0.106117174,-0.02001109,0.13003424,0.1276025,-0.0841781,-0.0032533968,0.09494961,-0.08292969,-0.1561621,0.20101744,0.005124368,-0.1450721,-0.07734924,-0.022223901,-0.08071722,0.089314036,-0.09051257,0.08629868,0.30339515,0.028231239,-0.09240278,0.06921888,0.17885204,-0.06059608,0.2022568,0.14432402,-0.1943507,0.014131615,0.03559268,-0.013259742,-0.100056656,0.037524004,-0.114614904,0.09305948,0.084235445,-0.1794105,-0.06553757,-0.0568238,0.01349898,-0.19087344,0.054680847,0.101958245,0.060693994,0.09331791,0.09178446,0.07202599,0.07044242,0.06638195,-0.07324095,0.14318904,-0.05865657,0.07904521,0.071593314,-0.065612525,-0.01248561,0.0982377,0.12313241,0.060146272,0.00499207,-0.13124384,-0.07306353,0.09487949,-0.117001764,0.04311628,-0.012524487,0.1131748,0.011410493,0.17809233,-0.1463403,0.09755467,-0.038028818,-0.018363595,-0.15603316,0.016398316,0.04422768,0.03111112,0.051300578,0.17635146,-0.07425286,-0.027225334,-0.08657253,0.14249516,0.023845121,-0.36256582,-0.1578733,-0.18404272,-0.05979399,0.12776431,0.12903914,-0.06670592,-0.048655394,-0.034998037,0.11942851,-0.2081007,0.05262442,0.0667957,0.09474795,-0.14285098,-0.016411183,0.2272049,0.021341242,0.013765889,-0.09728178,0.04763599,0.026800662,0.059748556,0.13737734,0.057450436,-0.084265634,-0.03590089,0.022518504,0.06606339,0.030971892,-0.079914205,0.0051894546,-0.05639137,0.022141343,0.07186912,-0.05524514,-0.011464741,0.006692392,0.032088663,0.04880991,0.24734297,0.042610493,-0.3103318,-0.074232176,-0.14211331,-0.05339263,0.23965076,-0.056712892,0.12525605,-0.07553134,0.13108137,-0.12972842,-0.039165754,-0.14778817,-0.041708402,0.044260908,-0.12419351,-0.03607732,0.110091075,-0.17570777,-0.022259664,0.050693236,-0.067453556,-0.020183735,-0.11396939,-0.065659195,-0.016697135,0.17947574,0.15008748,0.20806693,0.008031707,-0.067168504,0.081072204,0.1236068,-0.1584438,0.102519654,-0.03960917,0.05682487,0.18554957,-0.098924585,0.01540109,-0.051341403,-0.03224896,-0.0027558329,-0.021626268,-0.051453207,-0.08366342,-0.06835384,-0.0022621658,-0.030545603,-0.2077466,0.18536283,-0.06684837,0.015822943,0.06898225,0.00064696424,-0.009774762,0.06738347,-0.113814436,0.023698991,-0.03039394,-0.08317,0.09812367,0.011779892,-0.096074015,-0.17331229,-0.15342173,0.024646474,-0.13130336,-0.04272617,-0.10506242,0.067450576
an,-0.040789228,-0.111444816,-0.035608824,0.14878975,0.06318081,-0.004933374,0.20415826,-0.06914291,-0.0267674,0.12688008,0.05307481,-0.01984095,0.081710815,-0.20415428,0.09660686,0.09817552,0.0964545,0.04463692,-0.14477675,0.21103904,0.13448921,0.022146137,-0.08890283,-0.16500108,-0.20319448,-0.026344702,-0.08614977,0.11823247,-0.07144212,-0.19338715,0.15838498,-0.009000052,-0.1508893,-0.06285412,-0.022550387,0.22238685,0.19514816,0.021916239,0.16293651,-0.15965758,-0.13984619,0.2778198,-0.071561985,-0.10822035,0.1394504,0.04942711,0.068587184,0.11064676,0.0931502,0.18131854,0.06926448,0.040298562,0.0812906,0.06862029,-0.10472145,0.0011369777,0.11628005,-0.15165286,0.006190658,0.20470469,-0.04255569,0.09746896,-0.015449762,0.11382579,0.075079076,-0.07425566,-0.0045158826,0.10634964,-0.09591208,-0.14844109,0.18967119,0.04571349,-0.12942629,-0.06679297,-0.004814746,-0.056873336,0.10312777,-0.072439216,0.08531074,0.26980776,0.0631248,-0.09386457,0.061562713,0.19672483,-0.053734984,0.15825182,0.15749258,-0.16850415,0.02433231,0.033655908,0.011020447,-0.07232097,0.0032694968,-0.13353015,0.050675325,0.07021785,-0.18640211,-0.05949297,-0.067965664,-0.0011897582,-0.15816835,0.03385295,0.11502557,0.09559267,0.06364713,0.09906412,0.07733193,0.050421808,0.032904282,-0.069040984,0.12270539,-0.06095473,0.05463376,0.05812305,-0.044834826,-0.03457144,0.115808964,0.08811515,0.016110878,0.054799028,-0.091452636,-0.08149906,0.120642915,-0.13871773,0.051100414,-0.009227834,0.061779123,-0.012209219,0.1637275,-0.11010596,0.052821968,-0.068662584,0.007976471,-0.13088115,-0.0043669324,0.056896653,0.014774168,0.0735565,0.18351538,-0.027043007,-0.031185968,-0.022577077,0.096711904,0.018524555,-0.38952133,-0.14418334,-0.18624754,-0.09386389,0.13988684,0.15872079,-0.052592818,-0.06944334,-0.04132721,0.14060108,-0.23116976,0.08233298,0.11366633,0.10637261,-0.14091697,-0.046695974,0.26012272,0.063960515,-0.013867615,-0.14077038,0.07258296,0.033309754,0.099225044,0.08562928,0.09131207,-0.06297859,-0.040676594,-0.014066164,0.13109492,0.070264176,-0.10008339,0.028537463,-0.06813319,0.06694764,0.036415067,-0.072762385,-0.020371102,-0.0034925651,0.051449943,0.037510157,0.30561894,0.047212075,-0.30597338,-0.091132544,-0.1790762,-0.052301854,0.19401851,-0.059570793,0.18748432,-0.09543449,0.12625284,-0.14810753,-0.046463076,-0.19928096,-0.030217811,0.081690036,-0.15077908,-0.05590335,0.12072946,-0.19252163,-0.025134295,0.09603521,-0.15065478,-0.0102121215,-0.13711454,-0.060705982,-0.022080908,0.16857822,0.1876867,0.21724457,0.045609757,-0.07416303,0.07685063,0.155511,-0.21699272,0.086674966,-0.09170211,0.05828052,0.23219648,-0.11545671,0.04740202,-0.053574964,-0.03435271,-0.005165099,-0.035812702,-0.057235397,-0.09394551,-0.10416564,-0.010826699,-0.073281825,-0.28719857,0.2797568,-0.16123393,0.051423356,0.088922486,0.038871918,0.006458553,0.08705888,-0.08153321,0.06912414,-0.07581786,-0.079115406,0.12153266,-0.004221929,-0.113038704,-0.23699732,-0.12901738,0.02644844,-0.13672583,-0.050043177,-0.1552193,0.06945649
and,-0.04955334,-0.1577426,-0.04137147,0.1534516,0.15164638,-0.05256772,0.2147277,-0.07805842,-0.07295555,0.13232389,0.17276205,0.0021644677,0.06895722,-0.20483024,0.07613689,0.06284133,0.14979044,0.04960065,-0.13404924,0.20793085,0.14913593,-0.00079640927,-0.027520379,-0.1644925,-0.23012337,-0.029760916,-0.13566746,0.12840046,-0.069404714,-0.1889458,0.18773745,-0.042148016,-0.16300128,-0.0020253926,-0.05187191,0.256605,0.29059517,0.029242367,0.22680622,-0.17777844,-0.07148989,0.343213,-0.10148422,-0.12009786,0.087469265,0.05097122,0.08579939,0.1267209,0.096067846,0.17466234,0.06357888,-0.025522824,0.11348014,0.092066534,-0.07409235,0.026411882,0.118046135,-0.21670328,0.027271481,0.25613853,-0.010071705,0.1230673,-0.08604641,0.13130131,0.14821294,-0.078362636,0.022057338,0.10267068,-0.05810337,-0.18132943,0.25723478,-0.028598491,-0.094029814,-0.09126385,-0.05439563,-0.071398735,0.10846162,-0.12401944,0.07810315,0.35017276,0.014609433,-0.079587765,0.054911952,0.17320322,-0.084508285,0.21876752,0.17523709,-0.2208186,0.03129883,0.0708357,-0.01461461,-0.103043854,0.026730606,-0.110223025,0.09023358,0.027667064,-0.19576307,-0.061641842,-0.069548585,0.034326702,-0.19950497,0.09118274,0.085805334,0.08066614,0.09728807,0.06198205,0.09532953,0.03756775,0.07238927,-0.099807486,0.16804995,-0.073224366,0.06339492,0.07332044,-0.068298556,-0.008135287,0.0853469,0.13846283,0.068083316,0.019349243,-0.14698674,-0.09793356,0.07904075,-0.113759294,0.050780192,0.010036371,0.09226396,-0.005685143,0.21150404,-0.16499127,0.15827805,-0.046248972,0.01494144,-0.162482,-0.012704503,0.030822618,0.0048467717,0.03804921,0.17856179,-0.091286264,-0.029643457,-0.15717112,0.14686053,0.01681441,-0.3970987,-0.12689798,-0.2153016,-0.053882618,0.11819246,0.11554479,-0.040371448,-0.05133758,0.015285348,0.12806249,-0.21192917,0.050604794,0.06872835,0.14487955,-0.14975607,0.010814386,0.23220053,0.031199357,0.007619928,-0.16635852,0.07082937,0.044349298,0.05455598,0.12545417,0.07500795,-0.15738554,-0.024823934,0.03699375,0.083077274,0.00418515,-0.04213339,-0.01911509,-0.07398721,0.0650806,0.09465322,-0.08546441,-0.053968634,0.028743666,0.018260263,0.039991595,0.27963015,-0.019517334,-0.35605514,-0.07755169,-0.1255861,-0.08968162,0.29828998,-0.05418796,0.075385064,-0.03586807,0.19496179,-0.085110806,-0.07689759,-0.1570413,-0.041881733,0.056294814,-0.113622196,-0.0009391649,0.10186989,-0.15939063,-0.02408929,0.03920336,-0.04217336,-0.06833124,-0.107619084,-0.08335037,-0.023094112,0.16379982,0.15634963,0.21992056,0.055597983,-0.052738313,0.11641546,0.1698893,-0.203498,0.13551465,-0.037080985,0.034437146,0.1723262,-0.15339123,0.025753736,-0.04276517,-0.013947659,0.004899331,0.0025393828,-0.07099159,-0.05274592,-0.069158815,0.02142698,-0.029324934,-0.21722928,0.17692348,-0.07506724,-0.0032312693,0.052516866,-0.016150868,-0.050705686,0.09783064,-0.07457576,0.055424225,-0.038586993,-0.09992783,0.14045061,0.03542338,-0.058478694,-0.13688314,-0.119819805,0.0071121003,-0.08289041,-0.03929421,-0.10256732,0.08541889
another,-0.03226868,-0.14873539,-0.027179454,0.15212622,0.101794444,-0.010668319,0.19790041,-0.08193847,-0.0675067,0.13641937,0.0695383,-0.024388501,0.10028849,-0.20541508,0.094776005,0.11090055,0.13169798,0.06255919,-0.13541655,0.20688143,0.12983344,0.04570064,-0.07366217,-0.16308995,-0.2068946,-0.0022111442,-0.08256005,0.11937804,-0.06360068,-0.19925453,0.16316174,-0.026537577,-0.14973699,-0.01266007,-0.03370647,0.222128,0.2403335,0.029108856,0.15942453,-0.14099069,-0.08589947,0.25586134,-0.040077213,-0.11158091,0.083283305,0.06512974,0.0988663,0.083225526,0.110177785,0.14571346,0.0545838,0.008695557,0.09517732,0.07331668,-0.12808919,-0.00082898076,0.11903309,-0.16506404,0.03232238,0.16630657,-0.031240705,0.10939345,-0.011265851,0.14551942,0.12959424,-0.08969953,-0.011730569,0.1122438,-0.095470555,-0.16631696,0.21154489,0.014182835,-0.15479144,-0.07795211,-0.022524051,-0.090274,0.101953015,-0.10219719,0.09355316,0.32233152,0.03744275,-0.10545695,0.06835533,0.20120938,-0.06848272,0.21652056,0.15946463,-0.20118864,0.009743405,0.03390338,-0.01841877,-0.10159577,0.04673409,-0.12818058,0.104271084,0.096117,-0.18807183,-0.06816365,-0.064335115,0.021912675,-0.19970606,0.062194433,0.12653379,0.073633075,0.09134798,0.09216672,0.075247005,0.076695405,0.06211669,-0.07212837,0.1507506,-0.064385474,0.08172359,0.08540043,-0.06577496,-0.013690446,0.11397902,0.13196105,0.060271043,0.004992936,-0.1324662,-0.071868286,0.104245596,-0.13161753,0.039878804,-0.00995217,0.12426868,0.009919945,0.18493675,-0.1543662,0.09381374,-0.046074387,-0.019000173,-0.16394195,0.01995603,0.04999686,0.035365723,0.051927228,0.1963518,-0.06337627,-0.02778258,-0.073942445,0.1500506,0.020253148,-0.3956889,-0.17452142,-0.19307351,-0.07661137,0.1372229,0.14509022,-0.06936289,-0.05057505,-0.051495966,0.13782047,-0.23922281,0.060376927,0.070904985,0.09790819,-0.15139678,-0.02666322,0.24255884,0.0260867,0.012463118,-0.10168373,0.050273437,0.03633076,0.068148926,0.13946465,0.061652992,-0.08963446,-0.04393658,0.009727567,0.08189687,0.038590193,-0.08342809,0.019875256,-0.052979715,0.025155326,0.06613462,-0.063515745,-0.016721006,-0.0037247338,0.0401303,0.050774727,0.27514297,0.054955427,-0.32511383,-0.08113872,-0.15275614,-0.044902664,0.23799415,-0.068584725,0.1443438,-0.095956326,0.12728377,-0.1504314,-0.036374982,-0.16506441,-0.04689513,0.04692184,-0.14351963,-0.05448335,0.12138379,-0.19451949,-0.026707694,0.066836566,-0.08359208,-0.0141606275,-0.12152564,-0.061555035,-0.020369947,0.18806837,0.16789772,0.22703025,0.0046582595,-0.081731126,0.07559676,0.13508494,-0.18170223,0.097932994,-0.04212466,0.053278577,0.21910433,-0.10145601,0.018611452,-0.04887995,-0.043040577,0.009957325,-0.024461724,-0.067736395,-0.10224959,-0.07965606,-0.001820657,-0.03527894,-0.24536632,0.21413307,-0.08360697,0.020110505,0.07204834,0.013287751,-0.008063609,0.0718602,-0.1245414,0.03644737,-0.039953552,-0.08948308,0.10315966,0.0007032547,-0.11373896,-0.20046735,-0.17309661,0.02239471,-0.15485342,-0.0420203,-0.12936383,0.064692765
answer,-0.019413304,-0.1381747,-0.018894188,0.12576278,0.08825013,-0.00014140595,0.16251214,-0.07092667,-0.06421118,0.10953227,0.039590124,-0.021909425,0.09438315,-0.17644091,0.087553166,0.105700515,0.120759405,0.060398586,-0.11470406,0.17129628,0.11233937,0.051042486,-0.07547542,-0.13905174,-0.16957168,0.007268917,-0.046140973,0.08655827,-0.044739265,-0.15999418,0.11758524,-0.021747455,-0.11534012,0.00093911734,-0.03442071,0.18841965,0.19112459,0.021397209,0.117463134,-0.104720846,-0.06251707,0.1898061,-0.015952613,-0.086425565,0.068799764,0.06822842,0.08863059,0.040857527,0.100570716,0.10290822,0.039451443,0.0047398726,0.082184836,0.058469016,-0.120045125,0.0006394503,0.091623336,-0.13126333,0.031558838,0.104265004,-0.030063927,0.09941953,0.0050596576,0.14513831,0.11385068,-0.08461929,-0.01704298,0.09209207,-0.08518253,-0.1343408,0.17062886,0.020873986,-0.16079369,-0.06765535,-0.011536877,-0.08293683,0.07234079,-0.08417667,0.09618602,0.274173,0.028609687,-0.094124466,0.069813505,0.18490914,-0.05798281,0.19631523,0.12615608,-0.17153853,0.016566547,0.016411768,-0.028781788,-0.08332306,0.042378865,-0.115211196,0.0978008,0.10230025,-0.16361138,-0.062212273,-0.04052486,0.0066118804,-0.17716213,0.047939826,0.11937272,0.04561751,0.06870142,0.087982915,0.05874751,0.08363352,0.05949903,-0.05341203,0.12524709,-0.038514495,0.08906893,0.07459347,-0.0668248,-0.009438478,0.09807593,0.11028837,0.07096208,-0.007975726,-0.11612985,-0.054473855,0.10307829,-0.106674574,0.025901435,-0.018976318,0.11457324,0.019259857,0.150247,-0.13441885,0.06773823,-0.031506002,-0.032060802,-0.1425166,0.025531856,0.043384995,0.042052455,0.047964934,0.17102471,-0.0671568,-0.02739255,-0.05041595,0.13552243,0.017254593,-0.32306874,-0.17526965,-0.16264597,-0.074455835,0.12202756,0.1299566,-0.076420255,-0.04872375,-0.06090719,0.12591378,-0.2104984,0.05630787,0.051216606,0.073772155,-0.13937019,-0.028239394,0.20474558,0.019536953,0.025287164,-0.0648236,0.029229518,0.028601076,0.06836233,0.14703928,0.04499062,-0.062828876,-0.04304747,0.016299559,0.05121757,0.03415503,-0.088018075,0.017650833,-0.04137906,-0.0003938694,0.05659247,-0.0445984,0.00083750515,-0.009141319,0.03297085,0.052619472,0.22257714,0.07328055,-0.28022075,-0.056488864,-0.122778304,-0.030440409,0.20294088,-0.05645676,0.13506567,-0.09603295,0.08755479,-0.148654,-0.022976812,-0.14646973,-0.04438878,0.021546556,-0.13021153,-0.052591253,0.12309071,-0.185011,-0.019234933,0.05947132,-0.07144113,0.0032686172,-0.11887067,-0.056874525,-0.014344777,0.17739329,0.14377858,0.19971535,-0.015458462,-0.069496624,0.050736938,0.10847431,-0.14473672,0.07827206,-0.04354426,0.063831866,0.18950556,-0.07567241,0.0016823111,-0.047373254,-0.0591546,0.010009276,-0.028679376,-0.055731375,-0.10574953,-0.066745915,-0.0050187595,-0.024651676,-0.20989318,0.18304841,-0.05262051,0.023661051,0.06831764,0.01432497,0.009605427,0.045709737,-0.14153403,0.022126481,-0.032534555,-0.075080566,0.08187951,-0.00066700834,-0.11594961,-0.1973598,-0.17810616,0.028060576,-0.16233084,-0.041762143,-0.12449263,0.0522722
